// Auto-generated by export_model_header.py — DO NOT EDIT
#pragma once
#include <stdint.h>

/*
{
  "version": 1,
  "model": "TinyTransformer-HAR",
  "d_model": 96,
  "nhead": 4,
  "depth": 3,
  "ffn_mult": 3,
  "in_ch": 6,
  "num_classes": 6,
  "attn_window": 24,
  "force_power2_scales": false,
  "act_scales_names": [
    "stem_out",
    "posmix_out",
    "blk0_mha_out",
    "blk0_mlp_out",
    "blk1_mha_out",
    "blk1_mlp_out",
    "blk2_mha_out",
    "blk2_mlp_out",
    "final_norm_out",
    "attnpool_out",
    "classifier_in",
    "classifier_out"
  ],
  "act_scales_values": [
    2.7614436112050935,
    4.40150848148376,
    0.0060376994253143555,
    0.008200608839200237,
    0.009864561201080563,
    0.00848297809991311,
    0.010129800931675228,
    0.009522192121490719,
    0.07469294390340489,
    0.010674087081368513,
    0.06415895026499831,
    0.013451195138645924
  ],
  "notes": "int8 sym quant (zp=0); int32 accum; per-channel weights; per-tensor activations; integer requant (M,r)"
}
*/

// ---- Model constants ----
#define MODEL_VERSION             1
#define MODEL_D_MODEL             96
#define MODEL_NHEAD               4
#define MODEL_DEPTH               3
#define MODEL_NUM_CLASSES         6
#define MODEL_IN_CHANNELS         6
#define MODEL_ATTENTION_WINDOW    24
#define MODEL_USE_POWER2_SCALES   0

// Per-layer activation scales (s_act), per-tensor, float stored for tooling/debug.
static const int32_t g_act_scales_q31[12] = {
    2147483647, 2147483647, 12965861, 17610673, 21183984, 18217057, 21753582, 20448752, 160401876, 22922427, 137780297, 28886222
};
// Names (indices):
//   0: stem_out
//   1: posmix_out
//   2: blk0_mha_out
//   3: blk0_mlp_out
//   4: blk1_mha_out
//   5: blk1_mlp_out
//   6: blk2_mha_out
//   7: blk2_mlp_out
//   8: final_norm_out
//   9: attnpool_out
//  10: classifier_in
//  11: classifier_out

// ---- Conv1d 0 : stem.conv ----
#define CONV0_OUTC   96
#define CONV0_INC    6
#define CONV0_K      5
#define CONV0_STRIDE 1
#define CONV0_PAD    2
#define CONV0_DIL    1
#define CONV0_GROUPS 1
static const int8_t conv0_W[2880] = {
    109, 115, -29, 121, -34, 39, -52, 89, 127, -88, 114, 26, 100, 20, 67, -38,
    83, 3, -73, 28, -41, 3, -39, 95, -104, -56, -32, -72, 25, -113, 117, -106,
    104, 26, -36, 76, 18, 102, 12, -45, 31, -38, 51, 109, 65, -41, 89, 38,
    81, -66, -122, -45, -87, 127, 54, 59, 47, 3, 103, -95, 10, -88, 39, -46,
    35, -21, 112, -73, -75, -74, 112, 40, 122, -108, -127, -111, -95, 47, 47, 116,
    -57, -74, 87, -37, 92, -35, 65, -106, -61, 57, 22, -39, 63, 74, -98, -57,
    116, -41, -48, -126, -64, 35, -12, -83, 9, -69, -91, -57, -93, -60, 120, 11,
    23, -127, -91, -46, 9, -122, -72, -93, 17, -29, 4, -68, -71, -74, -46, -98,
    89, -32, 93, 30, -105, 73, -39, -53, -106, -127, 19, -42, 38, -94, 95, -78,
    -20, 32, 69, 100, 108, -95, 32, -58, -14, -96, 123, -97, 71, 48, 45, -69,
    112, 22, 11, -122, 50, -25, -67, 109, 31, -63, -91, -24, 60, -41, -81, -59,
    -109, 39, 97, -127, -25, -9, -3, -1, 0, -4, -28, -37, -46, -50, 12, 7,
    -1, -11, -22, 18, 22, 24, 27, 30, -127, -91, -94, -92, -63, 52, 36, 28,
    40, 76, 86, 64, -98, -67, -16, 122, 24, -26, 53, -43, -72, 92, -49, -20,
    -116, 74, 82, 35, -92, -127, -106, 81, 45, 81, 43, 35, -1, -90, -102, -114,
    47, -79, -40, -92, -37, -109, -92, 50, -37, 91, -31, -92, -18, -61, -35, -127,
    79, -103, 60, 59, 86, -112, 118, -39, 74, 118, -30, -9, -35, -112, 48, -124,
    69, 85, 112, -25, -98, 24, 61, -127, -15, -65, -6, -55, -51, -21, -98, 110,
    114, -4, -14, -45, -106, -122, 48, -64, -78, -9, -32, -23, 12, -17, -34, -52,
    -92, 96, -51, 30, -42, 10, 107, 50, -110, 41, 107, 38, 88, 124, -14, 27,
    -96, -38, 75, 54, -74, -103, -90, -127, -101, -38, 91, 31, -80, -88, 68, -88,
    -11, 59, -59, -18, -2, -27, -66, -117, -111, -54, 127, -51, -76, 32, 30, 62,
    90, 66, -121, 15, 76, -17, -87, 92, -49, -73, -116, 8, 60, 26, 23, -102,
    -127, -5, 117, 74, -77, -19, -98, -76, 9, 57, 99, -121, 92, -82, 52, 104,
    -7, 107, -117, -51, 76, -30, -36, -61, 73, 51, 32, -57, -89, 22, 47, -41,
    -34, 81, 10, 7, -27, -124, -127, -70, -73, 27, -49, -56, 111, 37, 70, -62,
    -54, 38, -85, -76, -17, -55, -103, 74, 104, 19, -28, -127, -54, 28, 65, -13,
    -49, 76, -100, 79, -49, 6, -21, 19, -45, 87, -13, 95, 120, -68, -98, 103,
    98, -111, -4, -118, -97, 32, 41, 20, -42, 110, 10, -84, -13, 25, 39, -94,
    45, -84, -127, -94, 102, 99, 112, 70, 87, -34, -95, 81, -54, -78, -37, 22,
    -60, -34, 8, 52, 74, -25, -35, -33, -22, -2, -46, -28, 0, 35, 54, -121,
    -66, 4, 73, 127, -69, -56, -16, 16, 43, -83, -72, -49, 8, 118, -1, -121,
    31, -93, -69, -109, 100, -120, 87, -8, -29, 60, -25, 66, 79, -97, 59, 37,
    40, 30, 49, -40, 2, 127, 94, -1, -107, 15, -74, 103, -66, -2, -21, 25,
    116, 11, 70, 94, 98, -40, -31, 55, -35, 53, -29, -92, 42, 18, 58, 127,
    81, 115, 6, -104, -84, -74, -104, -58, -108, -110, -79, -127, -76, 54, 112, -47,
    -44, 65, -66, -62, 75, -118, 13, 115, 26, 32, -78, -6, -1, 22, 52, 114,
    -89, 12, -66, -91, 6, -95, 109, 34, -64, 69, -118, -48, -23, -119, -91, -30,
    86, 109, 78, -79, -85, 109, 43, 0, 11, -110, -50, 119, -37, -12, -107, -69,
    1, -73, -12, 52, -127, 27, -67, -57, 36, 82, -22, -36, -85, -45, -81, -24,
    11, -105, 79, 40, -127, -30, 35, -22, -13, -38, 103, -54, 70, -16, 18, 65,
    -28, -59, 6, 105, -97, 23, -127, 62, 43, 11, 61, 8, 76, -92, -18, 53,
    120, 59, -94, 98, -22, -20, -110, -19, 77, 10, -70, 43, -39, 103, -113, -42,
    -126, -57, 40, 117, 22, 118, 25, 72, 98, 103, -62, 113, 78, -50, -51, -93,
    36, -89, 56, 44, -96, 37, -6, 54, 63, -127, 95, 106, 60, -94, -28, -19,
    -34, 64, 38, 90, -55, 28, 28, -117, -127, -59, 74, -124, -112, 67, 69, 94,
    -97, -89, 66, 109, 79, 16, 35, 112, -79, -57, 83, -90, -78, 76, 45, 45,
    -50, -2, 109, -71, 5, 63, -78, 127, -47, -22, -30, -79, -116, 71, 35, -114,
    -82, 112, 38, 41, -81, -58, -18, -30, -93, -2, -3, -36, 33, -35, 40, 51,
    -57, -119, 59, 27, -59, 115, -67, 70, 51, -104, 73, -92, -55, -11, -70, 127,
    -7, 54, -104, 65, -50, -99, 9, 53, 99, -77, -84, 23, 40, 60, 87, -36,
    84, 111, -40, 103, 69, 127, -91, -79, -47, 8, 89, -90, 67, -62, 49, -19,
    -126, -78, -110, 99, -76, 13, 53, -80, 44, -120, -89, -114, -37, -49, 16, -26,
    57, 112, 43, -55, -127, 36, -77, 67, 86, 49, 121, 124, 9, -108, 110, -54,
    -47, 106, 103, 46, 16, -102, -6, 6, 18, 22, 29, -7, 8, 17, 21, 8,
    20, 15, 11, 1, -11, 30, 49, 37, 0, -53, -13, -17, 12, 34, 37, 116,
    96, 37, -67, -127, 127, 76, 114, -6, 11, 46, -116, 14, -2, -56, -104, 104,
    99, 58, 122, -48, -20, 51, -11, -13, -82, 45, -88, -15, 107, -44, -49, 65,
    -48, 0, 117, -67, -110, -89, -49, -58, -64, 60, 28, -38, -102, -40, -55, -43,
    -122, 33, -95, -102, -109, 56, -93, -62, 100, 66, 72, -127, -94, -45, 119, 19,
    -78, 10, -87, -23, -31, 106, 39, -20, 21, -34, 47, 46, 29, -50, 97, -18,
    -47, 77, 102, 127, 19, -55, 56, 103, -120, -21, -82, 28, 60, -16, -50, -10,
    23, 43, 49, 9, 7, -13, -47, -76, 24, 13, -8, -35, -68, -11, 15, 21,
    32, 42, 56, 38, 11, 4, 85, -44, -15, 53, 114, 127, -6, -7, -5, -4,
    -5, 26, 27, 19, 7, -8, -5, -5, -6, -7, -7, 25, 7, -11, -26, -35,
    72, 27, -28, -48, -34, 66, 58, 22, -44, -127, 127, -12, -73, -60, 113, 7,
    -10, -43, -21, -88, -89, 80, 113, 125, -76, 51, -86, 62, 78, 85, 105, 84,
    -5, 38, -62, 70, -29, 4, -99, -25, -55, -38, -77, -108, 11, 72, 103, 63,
    -70, -127, 43, 65, -107, 35, 90, 12, -66, 106, 59, 85, -85, 65, -89, 110,
    -50, 68, 22, 31, -14, 63, -49, -110, -46, 87, -29, 31, -44, 83, 66, 36,
    -59, -94, 3, -68, 91, -104, 56, 119, 62, 42, -121, 100, -21, -100, 127, -47,
    -4, 114, -61, -58, 29, -10, 33, -104, 2, -45, -49, -102, 79, 35, -105, 100,
    38, 24, -72, 29, 127, 89, -100, 112, 6, 61, 94, 100, -103, 111, -92, -1,
    -102, -52, -57, -27, -23, -13, -24, -54, -46, -52, -54, -34, 19, -1, 3, 16,
    28, 95, 75, 107, 126, 127, 53, 31, 15, 16, 50, 5, 0, 1, -16, -17,
    -49, -24, -27, 127, -27, -86, 45, -8, 88, 71, 102, -86, 72, 96, -58, 108,
    87, 1, 55, -41, -94, 31, 33, -80, 54, -112, 91, 108, 34, -65, -72, -78,
    -78, -61, -55, 39, 34, 33, 20, 19, -1, -11, -20, -31, -38, -1, 8, 20,
    24, 12, -98, -39, 47, 84, 67, 35, 39, 61, 89, 127, 47, 123, -86, -91,
    126, 113, -71, 89, -9, -124, 13, 48, -37, 50, -115, 105, 127, 82, 26, 42,
    -99, -27, 0, -61, -80, 96, 90, -127, 47, 67, 127, 70, 92, -48, 51, 105,
    -80, -65, 42, 85, -51, 16, 9, 37, -41, 50, 64, -68, 6, 4, 33, 85,
    8, -40, 78, -36, -33, 5, -77, 15, -85, 17, 18, 26, -97, -127, 56, 108,
    -115, 46, -98, 3, 115, 92, -100, 82, 70, 1, 125, -51, -25, -56, 37, 58,
    35, -89, -67, 40, -118, -30, -47, -65, 19, -12, 70, 22, -72, 75, 12, -46,
    -82, 28, -98, 29, 44, -69, -61, -73, 91, 93, 37, 127, -28, -105, 32, 38,
    101, -21, 61, 51, 108, -121, 115, -110, 118, -8, -124, 27, -38, -127, -49, 10,
    99, -44, 75, 12, 0, 20, -91, -114, -47, -121, -57, 7, -92, -38, -3, 8,
    -49, 33, -37, -25, -19, -14, -8, -9, -18, -22, -29, -32, 22, 32, 44, 51,
    54, -2, -17, -17, -2, 21, 63, 59, 64, 61, 46, 127, 73, 44, 38, 77,
    -62, 1, -24, -108, -126, -93, 49, 51, -117, -53, -13, -127, 55, 98, 4, -78,
    47, 61, 115, -54, -118, 58, 18, -27, -37, -82, 94, -24, 95, 118, 20, 26,
    -7, 72, -96, 42, -13, 54, 7, -32, -3, 67, -65, -58, -14, -41, 43, 80,
    3, 115, -27, -36, -24, -56, -55, -107, -101, 34, 85, 127, 122, -1, 31, -77,
    53, -127, 66, 28, 46, 52, -55, 119, 69, 91, 22, 64, 74, 44, 79, -49,
    104, 38, 73, 113, 11, -33, -15, 33, 24, -28, 106, 84, -77, -7, -8, -72,
    24, -35, -62, -35, -50, 122, 47, 127, 34, 34, 55, 13, -122, -99, -52, -3,
    58, 59, 103, 33, -41, -101, -100, -78, -46, -41, -28, -16, -3, -67, -50, -28,
    4, 18, -46, -46, -33, -3, 21, -1, -12, -25, -39, -51, 17, -18, -6, 25,
    0, -127, -56, -8, 5, 19, -74, 66, 25, -87, 43, -75, -39, -58, -80, 108,
    -111, 65, -108, -9, 15, 83, -49, 34, 18, 69, 35, 66, -64, -79, 117, -100,
    -28, -18, 127, -15, -101, -35, 65, 52, 108, -21, 67, -114, 57, 68, 79, -76,
    -36, 31, -88, -105, -127, 4, 79, 37, 5, 43, -83, 14, -24, -61, 113, -94,
    26, -100, -12, -69, 39, -84, 83, -110, 86, -99, 79, -55, 5, -20, 94, 48,
    -121, 20, -87, 110, 28, -30, -62, 60, -70, 77, 90, 76, 28, -127, 97, -47,
    -57, -31, 78, 88, 17, 63, -113, 2, -110, 39, -82, -34, 96, 127, -66, -75,
    10, 41, -33, -54, -66, 54, 118, -62, 45, 64, 103, -11, 4, 89, 95, 127,
    -19, 47, 73, -79, 16, -27, 70, -42, 8, 67, -92, -81, -42, 70, 73, -71,
    25, -51, -39, 95, 42, -47, 2, 22, 25, -36, -63, 66, 24, 55, -39, 60,
    88, 65, 28, 110, -4, 21, 101, 104, -58, 93, 31, -9, 107, -51, 87, 127,
    -79, -68, -114, -17, -99, -55, 32, 91, 80, 82, 54, -86, -112, -3, 114, 7,
    -14, -97, -78, -115, 104, -27, -124, 7, 2, -18, 46, 70, -127, -102, -8, -120,
    -116, 124, -7, -52, -32, -96, 105, -38, -69, -95, 83, -11, -3, -41, -69, 20,
    98, -81, 0, -106, -67, 111, -5, 127, -20, -70, -79, 116, -102, 65, 27, 37,
    75, -48, 67, -122, -53, 107, 38, -16, -27, -73, 85, -8, -7, 28, 92, -71,
    -36, 93, 77, -60, -127, 31, 77, 35, 83, -118, 66, -66, 82, 88, 29, 98,
    -76, -101, -120, 58, 54, -91, 71, 127, -126, 84, 8, 1, 110, 113, 56, 103,
    52, 19, -119, 15, -101, 39, 27, 13, -98, -86, 109, 76, 80, -43, -24, -33,
    96, -46, 79, 88, -118, -1, -34, -74, 54, -20, 107, -85, 65, -114, -70, 6,
    104, 52, -103, 26, -69, 3, -101, -51, 74, -127, -122, 11, 14, -33, 93, -110,
    -75, -91, -17, -25, 89, -11, 38, -58, 99, 103, -115, -34, -111, 52, -116, -67,
    127, -119, 104, 23, 104, -60, 98, 36, 34, 85, -127, -111, 116, -80, -16, -7,
    0, -3, -2, -4, -32, -62, -95, -127, -5, -15, -34, -49, -60, 27, -4, -40,
    -69, -82, -33, -5, 39, 22, -41, 53, 39, 41, 45, 25, -12, -2, 11, 17,
    14, 14, 19, 11, 1, -13, 13, 5, 1, -4, -5, 27, 12, -6, -24, -30,
    -1, 0, -2, -32, -49, 40, 36, 4, -56, -127, 58, -19, -63, -91, -25, -127,
    103, -69, -59, 9, 27, -18, 86, -79, 43, 1, -100, -39, 49, 43, 82, 77,
    -83, -64, -34, -107, -46, -115, 50, 107, 70, 76, 86, 69, 71, 78, 90, 92,
    125, 127, 1, 30, 51, 69, 60, -16, -20, 37, 80, 67, 81, 88, -34, -126,
    -5, -47, -95, -81, -38, -41, -56, 70, -115, 111, 17, 10, 54, 5, 45, 69,
    -101, 79, -24, -36, 19, 90, -77, -93, 69, -69, 42, -22, 27, 87, -78, -26,
    84, 12, -22, -127, -31, -50, -58, -56, -49, -67, -47, -42, -48, -68, 12, -4,
    -13, -19, -43, 6, -18, -41, -28, -9, -127, -76, -80, -6, 101, -23, -38, -34,
    -38, -64, 76, -9, -86, 83, -50, 33, 67, -108, 8, -43, 80, -77, 66, 67,
    58, 115, 26, -95, 92, 16, -3, -115, -29, -50, 127, 81, 90, 82, -74, -60,
    -59, -60, 80, 32, 90, 8, -90, -20, 95, 82, 36, -35, -110, -66, 56, -53,
    47, 25, -52, 63, -57, -21, -61, -127, 1, 42, -46, 88, -87, -95, -94, -8,
    58, 86, 82, -92, -91, -108, -123, -127, 42, 54, 66, 79, 91, 51, 33, 7,
    -15, -29, 71, 33, 55, 34, -68, 72, 60, 55, 49, 71, 115, 50, 7, 17,
    -31, 5, -10, 114, 77, -110, -7, -89, -26, -113, 38, -105, 121, 105, -81, -114,
    12, -34, 29, -92, 84, -127, -85, -78, 65, -14, -117, -70, -56, -110, 22, 41,
    -24, -49, -1, -96, -86, -14, 98, -46, 52, -37, -21, -107, 109, 127, -12, 74,
    102, 59, 49, -121, -119, -98, 34, -111, -92, -55, -109, 8, 26, -79, 78, -50,
    -36, 95, 99, -22, -97, -68, 12, 71, 59, -61, -127, -121, -62, -4, -52, -95,
    7, -102, -95, -101, -36, 104, -115, -127, -126, -107, -85, -18, 2, 16, 13, 3,
    -3, -1, -1, -8, -19, 28, 25, 16, 11, 27, -19, -6, 23, 63, 118, -79,
    -38, 3, 32, 49, 30, 6, -14, -26, -33, -1, 0, -2, -6, -10, 29, 21,
    16, 12, 4, -34, -39, -47, -58, -72, -127, -46, -9, -33, -91, 40, 27, 7,
    -2, -3, 119, 0, -101, -39, -31, -4, -125, 16, -62, -42, -54, -15, -109, -58,
    23, 85, 118, -101, 50, -79, -84, 1, -73, -115, -127, -84, 108, 67, -66, -110,
    -111, -87, -62, 76, 40, -49, 96, -80, -106, 31, -65, 47, 121, -57, -89, 44,
    -127, 114, -67, 63, -92, -81, 23, 58, 120, 91, -31, -38, 6, -47, 2, -124,
    -109, 81, -78, 91, 8, 26, 110, -76, -21, 20, 39, -127, 39, -73, 18, 82,
    -18, -8, -16, 100, 67, 16, -80, -70, 101, 93, 76, -94, 115, 9, 96, 100,
    -2, -31, 127, -50, 95, -89, -50, -109, -48, 65, -62, -98, 90, 72, 8, -77,
    -25, -32, 73, -50, -46, -85, -59, 63, 80, 24, -44, 127, 28, -48, -44, -10,
    68, 53, 99, 1, 114, -45, -53, -41, -114, -82, -111, 1, 14, -17, -121, 96,
    -52, 54, 75, -86, -20, 72, 123, -19, 91, -90, -73, 106, -5, 120, 10, -50,
    114, 104, 7, -78, -12, -66, 79, -6, 15, 61, 24, -95, 103, 76, -68, 101,
    39, -24, -88, -24, -127, 54, -127, -97, -48, -6, 9, -18, -14, -9, -9, -11,
    -5, 2, 15, 29, 48, 45, 34, 16, -8, -19, 72, 25, -13, -40, -77, 48,
    60, 78, 72, 10, -46, -3, 32, 53, 62, 48, 33, 11, -18, -36, 0, 4,
    5, -4, -10, 1, 5, 17, 36, 44, 8, -6, -12, -25, -28, 51, 25, 43,
    73, 127, 127, 14, 81, -102, -64, 9, 95, 54, 18, -127, 24, -62, -90, 28,
    -69, 116, -62, 44, 75, -97, 80, -12, 64, 117, -63, -56, 100, 16, -15, 83,
    -62, -6, 87, 51, -77, 30, -101, -73, 78, -35, -61, 10, 33, -74, -80, -127,
    31, -81, 10, -31, -98, -42, -98, -72, -10, -105, -112, 95, 16, -50, -11, 80,
    -102, -65, -86, -8, -2, -87, 85, -86, 108, -81, -17, 21, -52, 104, -84, -11,
    -92, 24, 84, 106, 19, -48, 127, 6, 77, -61, -54, -99, 119, 27, -78, 16,
    -44, 1, 34, -61, 20, -71, 14, -120, 13, 110, 102, 29, 77, 118, 47, 55,
    21, 101, 97, -44, 22, -67, 27, -127, 38, -22, 45, 39, -65, 68, 57, -115,
    125, 107, 76, -19, 52, -64, -37, 67, 64, 54, -118, 116, -44, 124, 125, 46,
    116, 62, 70, -36, 127, 44, 93, -7, 105, 125, -100, 111, -90, -87, -119, 25,
    -115, -56, -61, 41, -127, -58, 6, 8, -62, 51, -83, -108, -16, -73, 83, -85,
    10, 69, -108, 110, -58, -33, -70, -50, -54, -122, 44, 4, 127, 88, 114, 35,
    62, 124, 109, -100, -33, -115, 13, -35, 123, 31, 2, -96, -104, 21, -58, -67,
    84, -80, -73, 77, 47, -72, 39, 66, -108, 36, 40, 4, 127, -78, 81, -54,
    -96, 95, -53, 5, 65, -109, -115, 32, 85, -37, 73, 36, 36, -78, 125, 64,
    29, 105, -97, -55, -7, 27, 50, -25, -21, -12, -8, -11, -29, -4, 3, 5,
    18, 45, 52, 47, 16, -24, 115, 45, 29, -61, -127, 62, 76, 89, 65, -52
};
static const int32_t conv0_B[96] = {
    -140, 222, 49, 64, -25, -27, 251, 205, -144, 288, 67, 261, 306, -249, -22, -86,
    -130, 12, 284, 22, 233, 71, -51, -29, 123, 127, -40, -68, 566, 195, -96, 127,
    -173, 81, -29, 80, 373, -12, -279, 60, -209, -103, 226, -47, 177, 195, 5, -50,
    -478, -15, 65, -18, 75, 269, 26, 54, -113, 155, -254, 160, 148, 95, -411, -115,
    188, 273, -70, 191, -562, -168, 4, -162, 74, 169, -37, 89, 237, 163, -133, -22,
    -11, -117, 176, -153, 23, 15, -26, -67, -37, -8, 37, 5, -218, -339, -270, -143
};
static const int32_t conv0_M[96] = {
    1461890510, 1371119594, 2084763666, 1888343933, 1308691650, 1096288195, 1101820842, 1387934269, 1686091724, 1695445921, 1606602108, 1108895692, 1184182913, 1102686843, 1715151043, 1455515158,
    1712907679, 1298907209, 1950640005, 2086789360, 1593057476, 1469761056, 1373112320, 1823132767, 1242270767, 1176558221, 1588241695, 1526328443, 1745799883, 1121950488, 1535520610, 1124981437,
    2015165610, 1410750419, 1345952336, 1543218829, 2128826411, 1513098408, 1456385318, 2057089303, 1505474652, 1868824346, 2105869655, 1644678251, 1458694410, 1853844943, 1276814373, 1107335914,
    1508085757, 1488802871, 1334548421, 1225844216, 2094270845, 1629856302, 2009177343, 1639020285, 1553210021, 2110981001, 1757761650, 1317024681, 1285777741, 1980216927, 1234720953, 1968017420,
    1595331104, 2137665917, 1504251415, 1731222853, 1873257411, 1204656276, 1451257228, 1584781437, 1609696705, 1827316858, 1313402705, 2144673167, 1261064752, 1837903964, 1724351529, 2042186235,
    2047809881, 1327288350, 1126270298, 1544747408, 1426713965, 1252811385, 1719257343, 1634633500, 1254696161, 1617208974, 1372485621, 1193330360, 1587607820, 1365384980, 1301413899, 1614626261
};
static const int32_t conv0_R[96] = {
    45, 45, 45, 46, 45, 44, 45, 45, 45, 46, 46, 45, 44, 45, 45, 45,
    45, 45, 46, 45, 45, 45, 45, 45, 45, 45, 44, 45, 46, 44, 45, 45,
    46, 45, 44, 45, 46, 45, 45, 46, 45, 46, 46, 45, 45, 45, 45, 45,
    45, 45, 45, 45, 45, 45, 45, 44, 45, 46, 46, 45, 44, 45, 45, 45,
    45, 46, 44, 45, 46, 44, 45, 45, 45, 46, 45, 46, 45, 46, 45, 46,
    45, 45, 45, 45, 45, 45, 45, 45, 45, 45, 45, 45, 46, 46, 45, 45
};

// ---- Conv1d 1 : pos.dw ----
#define CONV1_OUTC   96
#define CONV1_INC    1
#define CONV1_K      3
#define CONV1_STRIDE 1
#define CONV1_PAD    1
#define CONV1_DIL    1
#define CONV1_GROUPS 96
static const int8_t conv1_W[288] = {
    127, 77, 20, -3, 104, 127, -14, 96, -127, -127, -22, -56, 127, 124, 8, 86,
    127, 107, 127, -17, 122, 55, -127, -4, -53, -14, -127, -81, -127, 85, 59, 127,
    126, -127, 77, 60, -14, -127, 52, 94, -127, 111, 127, 25, 83, 19, 93, 127,
    102, 101, 127, -83, 113, 127, 59, -127, 98, 127, 101, 24, -67, 15, 127, 8,
    -103, -127, 127, 33, -127, -127, -114, -117, 127, 49, -53, 115, -18, 127, 127, 15,
    -30, 127, 113, -34, -54, 127, -20, 65, 127, -47, 127, 31, 33, 127, -44, 34,
    -127, -104, -98, -24, -78, 127, 127, -58, 58, -61, 42, 127, -127, 41, 121, 42,
    -87, 127, 103, 127, 100, -93, -127, -36, -127, 106, -52, -127, -84, -78, 127, 47,
    -97, -99, 127, -97, 79, 127, 56, -127, -121, 11, -68, 107, 127, 117, 125, 127,
    127, -58, -5, -72, -127, -122, -127, 117, -98, 124, 127, -35, -53, 50, -127, 126,
    127, -127, 123, -27, 127, -3, 82, 127, 127, -103, -76, 127, 59, -12, 95, -27,
    127, -127, 119, 12, 71, 105, 127, 33, -127, -8, -104, -127, -122, -96, -127, 38,
    -127, 37, 120, 30, 86, 127, -116, 125, -127, 94, 114, 127, -20, 127, -103, -46,
    -120, 127, -47, 127, -99, -60, -127, 22, -51, 77, -127, -120, 127, 47, -127, -1,
    -81, 127, 76, 28, 71, -127, 105, 76, 124, 127, 127, 9, -12, -36, 87, 127,
    -64, 127, -42, -69, 127, -70, 116, -127, 69, 103, 127, 61, 127, 66, 87, 20,
    127, 64, -127, 123, -105, 127, -6, 48, -10, 73, -127, 7, -127, -12, -127, 14,
    40, 107, 127, 89, -30, 127, -54, -120, -127, -74, 8, 91, 127, -93, 127, -62
};
static const int32_t conv1_B[96] = {
    0, 0, 0, 0, 0, 0, 0, 0, 0, 0, 0, 0, 0, 0, 0, 0,
    0, 0, 0, 0, 0, 0, 0, 0, 0, 0, 0, 0, 0, 0, 0, 0,
    0, 0, 0, 0, 0, 0, 0, 0, 0, 0, 0, 0, 0, 0, 0, 0,
    0, 0, 0, 0, 0, 0, 0, 0, 0, 0, 0, 0, 0, 0, 0, 0,
    0, 0, 0, 0, 0, 0, 0, 0, 0, 0, 0, 0, 0, 0, 0, 0,
    0, 0, 0, 0, 0, 0, 0, 0, 0, 0, 0, 0, 0, 0, 0, 0
};
static const int32_t conv1_M[96] = {
    1926902219, 1462994620, 1353551406, 2078186943, 1223505767, 1505628422, 1723269796, 1171982964, 1087651079, 1526149978, 1264354782, 1809432322, 1163652245, 1457181796, 1828263450, 1691301191,
    1914632361, 1957186018, 1596145426, 2109384295, 1132394583, 1514611862, 1107011179, 1452189371, 1104639600, 1280217663, 1466409847, 1156688966, 1335612631, 1531945456, 1282643929, 2035036296,
    1605889359, 1170025279, 1201329117, 1819498440, 1234435489, 1257575001, 1249196982, 1156984008, 1787126380, 1821088647, 1282576553, 1391843417, 1512689994, 1469216038, 1074028879, 1497858555,
    1341329329, 1623500006, 1329359894, 1263632194, 1948141706, 1384904229, 1349062014, 1503493423, 1359332589, 1279855807, 2041632097, 1852684636, 1367283303, 1225465138, 1143367429, 1576934293,
    1665450570, 1410236881, 1810408675, 1669098040, 1310389516, 1460947957, 1329828475, 1319680285, 2085005993, 1745106915, 1294955626, 2063728603, 1980633099, 1469513810, 1477808713, 1177993821,
    1795589924, 1419430400, 1448680830, 1250993975, 1634745328, 1469348060, 1233412800, 1453100998, 1394872857, 1498918426, 1343735278, 1311808833, 1389676457, 1417057698, 1548881538, 1429447372
};
static const int32_t conv1_R[96] = {
    45, 39, 39, 40, 39, 39, 40, 39, 39, 39, 40, 40, 39, 39, 40, 46,
    45, 40, 40, 45, 39, 39, 39, 39, 45, 39, 39, 39, 39, 39, 39, 49,
    44, 39, 39, 40, 39, 39, 44, 39, 40, 48, 39, 39, 45, 39, 39, 46,
    39, 39, 39, 39, 40, 39, 39, 44, 39, 39, 40, 40, 43, 39, 47, 39,
    47, 45, 40, 43, 39, 39, 39, 39, 40, 40, 39, 46, 40, 39, 39, 39,
    40, 39, 40, 39, 46, 39, 40, 39, 39, 39, 39, 39, 39, 39, 39, 39
};

// ---- Linear 0 : blk0.mha.qkv ----
#define FC0_OUT   288
#define FC0_IN    96
static const int8_t fc0_W[27648] = {
    -34, -83, -111, -88, -76, 127, 11, -116, -69, 25, -32, -42, -48, -27, 17, 13,
    72, 82, 111, -2, -55, 4, -72, 43, -6, -40, -108, 60, 59, 98, -36, 18,
    4, -78, -83, 85, -77, 85, 56, 34, 72, 52, 48, 77, -51, -55, -14, 67,
    85, 83, -15, -5, -87, 70, -77, -69, 94, 32, -57, -91, -91, 94, -114, 106,
    91, 1, 12, 92, 66, 114, 90, -89, 67, 66, -84, 65, -73, -67, -1, -13,
    -62, -81, 60, 111, -18, -82, -14, -104, -105, -29, 103, -73, -20, -69, -111, -9,
    -26, -33, 108, 66, 71, 31, 24, 47, -49, 72, 57, -61, 32, -100, -107, 21,
    41, -15, 41, -55, -50, 119, -107, 70, 77, 62, 49, -127, 30, -57, -51, 76,
    -25, -71, -90, 73, 17, 110, 38, -53, 44, 116, 56, 20, -60, -23, 62, -54,
    38, 14, 63, -11, -73, -51, 71, 22, 60, -80, 82, -29, -17, 39, -49, 3,
    -20, -16, -59, 76, -127, 45, 118, 60, -26, -97, 73, 109, 105, 16, 28, 92,
    37, -40, -122, 22, 25, 106, -36, 29, -32, 14, 89, -114, 62, 105, -74, 91,
    -10, 72, -49, -55, 118, -24, -26, 33, 47, -87, -3, 19, 30, -3, -13, 22,
    -80, 22, -77, 21, 18, -77, 26, 6, -56, -30, 17, -20, 17, 82, -37, 51,
    7, -26, 103, -66, 21, 14, -2, -47, 19, 25, -42, -102, -22, -83, -54, 51,
    24, -1, -17, 12, -18, -24, -17, 77, 21, -41, 29, -17, 67, -26, 19, -60,
    40, 36, -24, -11, 8, 22, 24, 5, -59, 6, -96, -15, 32, 14, 84, -30,
    127, 19, -47, 40, -18, 41, -31, 0, -55, 5, -73, 4, -16, -84, 98, -24,
    85, -52, 79, 71, 105, -106, -1, -24, 12, -97, 41, 16, -45, -92, 79, -54,
    53, 19, 26, -30, -18, -74, -99, 42, -61, 79, -60, 61, 97, -61, 99, 13,
    -99, 63, 50, 113, -115, 91, 83, 63, 35, -65, 92, 107, -51, -53, 99, 90,
    57, 56, -60, -2, -49, 73, 43, -84, -6, -76, -127, 111, -44, 49, -45, -54,
    14, 106, -25, 77, 55, 64, -113, -96, -107, -10, -41, 15, 99, 54, -82, -58,
    64, -2, 37, -49, -21, 29, -78, 89, 43, -82, -52, -6, 28, -81, 115, -113,
    -81, 59, 36, -93, -27, -49, 107, -8, -14, 26, -12, 11, -59, -53, -16, -71,
    61, -47, -34, -30, -19, -29, -57, -11, -23, 33, -45, 50, 46, 74, -31, 23,
    2, -2, -9, -106, 20, 35, -16, 39, 75, 6, 105, -24, 15, -30, -19, -32,
    24, -61, -110, -89, 22, 44, -7, 64, 0, 18, 102, 27, 27, -30, 36, -50,
    -1, 14, -83, -36, -23, -14, 24, 54, 87, -17, 14, -50, 20, -21, 21, 41,
    127, -2, 45, 15, -30, -2, 93, 7, 55, -96, -80, -101, 11, -13, -23, -69,
    30, -117, 78, 80, -88, 70, 12, -86, 127, 70, 43, -62, -56, -63, 28, 55,
    -48, 113, 78, -15, 66, 2, 45, 127, -103, -74, 22, 16, -110, -117, -12, -37,
    34, 1, 38, 20, 12, -12, 53, 117, -49, -54, 29, -84, 79, 97, 19, -35,
    16, -57, -78, 103, -103, -111, -56, -6, 28, -72, -9, -33, 69, 96, 48, 45,
    69, -108, 93, -39, 100, -103, 48, -60, 72, 24, 120, -72, 72, -82, -63, 35,
    -33, -82, -110, -52, 28, 106, 76, -21, -64, -69, 127, -74, -28, -45, -95, 61,
    -54, 6, 2, -7, 1, -10, 36, 77, 108, -107, -88, -18, 13, 74, 106, 44,
    -66, 2, 49, 56, -71, -4, -100, -27, 60, -58, 87, -119, 94, 42, 49, 59,
    15, -51, -68, -102, 97, -24, -10, -96, 31, -16, -116, -18, -92, -18, -106, 76,
    -70, 21, 34, -89, 98, 82, -70, 24, 27, 69, 73, -88, -58, -101, -37, -27,
    -24, 77, -105, -73, -113, -54, 127, 12, -39, -40, -96, -14, 81, 88, 96, -8,
    -20, -50, 92, -69, 29, 0, 92, 59, -15, -78, -13, -91, -18, 17, 84, -45,
    -63, -108, -127, 30, -68, 9, -62, -87, 53, 66, 70, 107, -87, -54, -87, 81,
    67, 92, -71, -58, 108, -83, -79, 26, -92, -33, 64, 105, -24, -100, 80, 90,
    -97, 9, -84, -31, 29, 40, 50, -117, -43, 38, -13, -18, -75, 115, -75, -87,
    73, -70, 96, -45, -32, -64, 107, 64, 18, 12, -53, -68, -58, 42, -35, 93,
    4, -1, -45, 48, -95, 24, 25, 14, 76, 45, -37, -87, -119, 56, 64, -92,
    -6, -52, 102, -48, 99, 77, 71, 82, 24, 44, -80, 13, -14, 62, -44, 65,
    79, 50, 45, 1, 54, -53, 104, 14, -9, -91, 100, 2, 95, -69, -92, -24,
    -112, 17, 3, -42, 75, 68, -112, -111, 78, -60, 18, -30, 8, -75, 3, -34,
    -66, -46, 28, 81, -11, -15, 70, 76, -48, -104, 28, 41, -110, -111, 20, 115,
    -127, -54, -56, -109, -72, 104, 109, -94, 9, -89, 24, -66, -70, -56, -1, 61,
    -42, 45, 112, -7, 13, 5, -8, 43, 75, -56, 118, 64, -14, 99, -6, 78,
    -124, 101, 124, -84, -110, -37, -72, 40, 58, -22, 62, 6, -28, -98, 24, -106,
    -12, 6, -80, 60, 37, 65, 69, -97, -69, -31, -100, 36, -73, -94, 22, 93,
    -29, -124, 26, 84, 100, 34, 84, -100, 114, -87, -55, 85, -39, 61, -96, 91,
    116, 34, 127, -91, -28, 36, 64, -43, 80, -33, -91, 23, -104, -96, 39, 39,
    51, 3, -78, -111, 123, -120, 41, 94, 100, -85, -54, -103, 71, -101, -111, -55,
    106, 82, 124, 113, -55, -53, -76, 47, 54, 22, -88, 16, -53, -29, -20, -9,
    -120, 114, -54, 40, 99, 54, 82, 62, 93, 44, 74, -64, -72, 92, 37, 26,
    -75, 28, 67, 5, 24, 49, -127, -18, -32, -52, 65, 96, 26, 67, -92, 30,
    -14, -58, 29, 41, -6, 73, 58, 104, 6, -5, 6, 2, -79, -31, -85, -88,
    -87, 81, -63, 0, 13, 85, 57, -54, 111, -97, 0, 111, 88, 8, -72, 53,
    90, -36, 8, -57, 34, 8, 42, -52, -102, -47, -85, -40, 20, -73, 7, -82,
    -87, -87, -13, -43, 24, 81, 80, 45, -10, -21, 84, -53, 70, -101, -88, 11,
    -65, 25, 89, 43, 120, -47, -52, -16, -31, -25, 2, 110, -64, 84, 64, 73,
    -12, 41, -29, 27, -6, -54, 19, -5, 72, 50, -34, 2, 19, -44, -68, 39,
    62, -24, 0, 33, -3, 69, 3, 33, -32, -21, 57, 41, -44, 67, -32, 8,
    8, -20, 120, -81, 11, -5, -41, 81, 55, 27, -18, -43, -44, 52, -35, -6,
    1, 57, -12, -76, -11, -34, -20, 7, 20, -28, 49, -6, 4, 24, 47, 75,
    5, 1, 65, 16, 59, 71, 20, 66, 28, -33, 29, -19, -6, -32, -7, -45,
    55, 31, -1, -2, 34, 12, 42, 3, 18, 29, -71, -23, -18, 127, 13, 73,
    93, -90, -15, 55, 21, 3, 88, -47, 50, 75, -19, 51, 73, 45, -40, 109,
    -40, 38, 33, 98, -78, 63, -53, 79, 34, -94, 24, 29, 31, 60, 47, 2,
    63, -107, 82, -2, 59, 24, 0, 109, -52, 33, 27, -36, 41, -64, -52, 63,
    61, -63, 58, 4, 99, -114, -34, -68, -61, -29, -93, 75, -62, 40, -59, 43,
    -89, 70, 127, 106, -26, 65, -84, 79, -7, -85, -65, -87, 18, -44, -52, 87,
    -44, 42, -27, 43, 30, 68, 24, -41, 97, 20, -43, 25, -21, -30, -1, 5,
    -32, -55, -44, -18, 19, 100, -70, -62, -48, 2, 8, -84, 55, -94, 76, 40,
    -7, -26, 52, 98, -60, 24, 83, 1, -78, -50, 26, -25, -80, -89, 26, 50,
    99, -22, 56, -68, 55, 92, 62, -8, 92, -88, -33, -24, -100, -17, -75, 41,
    2, 81, 11, 84, 4, 64, 70, -98, -62, 48, 99, -101, -19, -36, 101, 127,
    61, 41, 27, 112, -36, 17, -24, -46, -54, 29, 2, -55, -14, 16, -70, 44,
    -103, 10, -94, -109, -5, 98, 87, 19, 69, -27, 79, 64, -106, -46, 42, 43,
    -79, -89, 94, 33, 4, -106, 102, -82, 58, 10, 1, 48, -13, -28, 80, -70,
    68, -28, -31, 90, 27, -78, 92, -27, 90, -36, 118, 25, -10, 18, -7, -53,
    58, 65, -5, 99, 8, -59, -66, 89, -45, 67, -113, -11, -66, 53, 90, 45,
    -36, -78, -50, -70, 108, -56, 41, 87, 38, -99, -20, -18, 64, -15, -14, 114,
    17, 52, -12, 89, 5, -36, 25, -65, 20, 54, -87, -51, 74, -3, -5, 9,
    -38, 87, -14, -54, 39, -82, -17, -4, -17, 68, -88, -55, -45, 127, 20, -59,
    68, 7, 72, 40, -75, 110, -33, -16, 2, 87, 34, -105, -56, 107, -34, -65,
    -107, -65, -54, 7, 32, 84, 73, -32, 66, 67, -110, 67, -81, 119, -30, 10,
    -8, 53, 14, -65, 37, 62, -45, -94, -78, -66, 0, 31, -11, -49, 75, -3,
    -74, -48, -54, -10, -123, 17, -80, 32, 79, -67, -52, -96, 27, 29, -51, 47,
    40, -102, -7, -74, 3, 76, -25, -96, 58, -97, -51, 33, 83, 109, -27, 37,
    -127, -31, -28, 35, -55, 17, 53, 98, -43, 81, -92, 9, 45, -4, 63, -90,
    63, -97, -93, -11, -127, -112, -104, 110, -6, -39, -5, -86, -96, -91, -95, 55,
    -70, -29, -82, 6, -17, -82, 64, 64, -69, 69, -67, 4, 54, 10, 89, 54,
    -77, -50, -121, 46, -81, -91, -70, -120, -95, 88, 76, 127, -50, -50, -35, -3,
    -96, 7, -45, 23, 95, 25, 83, -84, -10, -49, -26, -45, -39, -72, -48, 6,
    -9, -98, 75, 65, -62, 12, 62, -124, -100, 67, 7, 31, -43, 29, 57, -28,
    -62, -110, -6, 55, -90, -11, 84, -19, -59, -38, -23, 46, -105, 28, -37, -18,
    -5, 43, -33, -66, -89, -86, -48, 83, -56, -29, -87, -48, -2, -56, 7, 35,
    3, 41, 23, 106, -6, 111, 76, 69, 68, -64, -65, 30, 24, 58, -9, -3,
    71, 4, 91, -53, -41, -4, 52, -74, -34, 73, 13, 83, -31, -45, -70, -66,
    -83, 70, 23, -74, 111, 38, 43, -43, 70, -73, 63, -45, 29, -36, 63, -69,
    -26, -28, -58, -37, -40, -1, 76, -2, 127, -56, -31, -3, -23, 21, 83, 40,
    -83, -39, -14, -100, 19, 81, 44, -6, 24, -38, -10, 57, -47, 52, -101, -25,
    26, -66, 26, -74, -35, 74, 86, -14, -75, -87, -34, -71, 90, -67, 54, 39,
    -27, 95, 69, 18, -71, 6, 45, 102, -37, -62, -72, 72, 85, 79, -45, 56,
    -32, 57, 71, -75, 25, 32, -80, 127, 89, 91, -24, -55, -75, 71, -19, 104,
    84, 49, -51, 69, 80, -52, -56, -31, 31, -90, 65, 39, -58, -29, -45, 109,
    48, 21, 20, 39, 127, 50, -62, 67, -46, 12, -68, -2, -2, -76, 69, 68,
    -109, 32, -84, -33, 65, 0, 29, -55, 87, -28, 31, 34, 63, 39, 68, 33,
    53, 0, 39, 127, -32, -59, 66, 59, -82, 55, -113, -59, 55, 61, -32, 113,
    121, 89, -89, -26, 13, 108, -19, 39, 50, -60, -44, 105, -5, 67, -127, -31,
    82, -15, 52, -111, 114, -50, -19, -52, -48, -84, -124, -37, -44, 100, -16, 84,
    -16, 45, 101, -106, -28, 94, -20, -29, 5, -71, -1, -43, 44, -5, -32, -27,
    42, 55, -89, -61, -111, 61, 91, -99, 38, 8, -46, 34, 102, 109, 46, -36,
    -50, -31, -2, 0, 91, -95, 4, -41, 21, 124, -13, -35, -44, -83, -98, 56,
    -68, 50, -59, 23, 69, 7, 25, 106, -44, 62, -94, 109, -38, 6, 67, -4,
    63, -51, -54, 65, -68, 34, 85, 30, -32, 17, -98, -44, -20, -46, 55, 64,
    -44, -3, 93, -3, 73, 88, -36, -127, 69, -61, 101, -55, 5, 1, -19, 62,
    -105, -65, -25, 81, 47, 72, 65, 85, -20, -13, -33, 41, -11, 45, 19, -8,
    102, 30, 68, -50, -90, 66, 28, 43, 36, 3, -88, -103, 23, 82, -6, -24,
    34, -57, 47, -56, -77, -64, -13, 56, 42, -83, -38, 57, -13, -36, 82, -39,
    58, 74, 55, 5, -59, -64, -23, 16, 79, 11, 83, -52, 19, -54, 13, 99,
    52, 11, -29, -62, -62, -48, 76, -18, -17, -100, -6, 83, 11, -49, 52, 63,
    86, -88, 19, -76, -67, 74, -69, -14, 59, 102, -109, -65, -33, 109, 54, 70,
    75, 3, 87, -11, 6, -37, 32, 39, -11, 75, -16, 19, 66, 53, -29, -11,
    3, -15, 40, 83, 44, -54, -74, 127, -2, -42, -55, 102, 45, -69, -90, 78,
    41, -7, -90, 43, -72, 51, -98, -105, -87, 111, 105, -98, 70, -23, -107, 71,
    46, 54, 24, 124, -85, 32, -41, 22, 92, -65, 41, -20, 99, -2, 52, 113,
    -40, -98, 102, -38, 29, 95, -15, 99, 66, -28, 35, -12, 93, 63, -80, 20,
    57, 90, 35, 40, -17, -4, -90, 110, 77, -53, -114, 81, -90, 97, -110, -42,
    -51, 127, -8, 83, 41, 99, 64, 87, 97, -39, -50, 39, 103, -12, -91, -58,
    -36, 21, -8, -10, -57, 24, -82, 114, -16, 22, 47, -29, 93, 1, -1, -117,
    13, 39, 10, -17, 81, 85, 69, -26, 22, -48, -81, -20, 5, -29, -90, 58,
    28, -60, 62, -91, 67, 37, -21, 109, -64, -32, 68, -6, -63, 27, -1, 37,
    95, 24, 15, 5, -12, -20, -19, 45, 71, 16, 38, 15, 27, 95, -61, 34,
    -37, -91, -105, -24, 61, -72, 26, 36, -81, 30, 39, -84, -14, -127, 95, 27,
    25, 48, 44, 95, 47, -50, 118, 39, -35, -15, 100, 40, 77, 4, 92, -105,
    31, 41, -16, 69, 20, 3, 59, -29, 17, -85, -2, -67, 53, 72, -101, -42,
    106, -58, 117, 116, -29, -96, 61, 60, 106, -21, 32, -103, 35, 9, 58, -79,
    -50, -70, -72, 54, 36, 36, -10, 23, 14, 29, -47, 23, 61, 42, -47, 99,
    -80, 55, 68, 3, 42, -64, -27, 16, -112, -41, 69, -38, 115, -91, -32, 100,
    97, -34, -60, -64, 78, 31, 101, -33, -42, 77, 30, -99, 116, 2, -103, 11,
    -16, -32, -52, -22, 66, 53, -70, -20, 63, -82, -35, -33, -19, -33, 73, 42,
    23, 31, 50, 79, 28, 45, 80, 56, -34, -26, -34, -35, 127, -35, -13, -79,
    -32, 42, 4, -51, -1, -46, 24, 60, -32, 7, 62, -67, -38, -63, 101, 57,
    7, 92, 49, 14, -97, -12, 41, 65, -49, 60, -48, 14, 34, 2, -81, 21,
    27, 52, -18, -51, -2, -25, -6, -61, 34, 53, -11, 102, 6, 57, 61, -56,
    6, -8, 49, -34, -28, -71, -66, 8, 77, -88, -25, 86, -70, 31, -1, -86,
    -26, -52, 38, -66, 41, -46, 71, -85, -63, 60, 72, -25, -127, -23, -36, 9,
    21, 39, 89, -77, 100, 73, -31, -85, -46, 25, 54, 15, -4, -52, -109, -66,
    -50, 20, 89, -63, 71, 70, -75, -50, -43, -15, 67, 53, 53, 50, 50, -98,
    -36, 9, -30, -23, 73, 70, -29, -68, -18, -3, 33, 43, 11, 42, 84, 27,
    -8, -75, 38, -15, -90, -52, 40, -96, 12, 41, 69, -2, -81, -31, 12, -4,
    -81, 110, -7, -42, 33, -15, 81, -40, -5, -107, -63, 24, 40, -89, 36, -37,
    -86, -58, -43, -40, -55, -11, 53, 40, 23, 9, -5, -75, 25, 50, -86, -122,
    -88, -6, -17, -78, 80, 2, -71, -98, 51, 127, -18, -72, 32, 37, -53, 73,
    -120, -27, 104, -36, -22, -48, -4, 105, 29, -117, -60, 40, -19, -73, -72, 58,
    63, 15, 20, -56, -24, 36, -19, 84, 57, 37, 38, 51, -78, 23, -99, -26,
    -3, 60, -72, 25, -89, 76, 24, -25, 26, 111, 45, -59, -50, 74, 5, 18,
    4, -63, -14, -6, 58, -31, -10, 45, -36, 68, 63, 22, -55, 48, 78, 5,
    40, -28, -109, -48, 14, 86, 37, -19, -38, -19, -50, -28, 4, 81, 83, 67,
    -67, 77, 127, -35, 17, 80, -20, 69, 74, 28, 75, 90, 55, -86, 67, 6,
    -17, 3, -6, -82, -86, -71, -10, 53, 98, 25, 89, -112, -45, 78, -117, 79,
    -48, -40, 63, 21, 94, 72, 30, 99, 9, -8, 54, -49, -21, 51, -69, 51,
    23, -67, -10, -10, 105, -66, 87, -58, 25, 55, -64, -53, 7, 4, -26, 3,
    87, -16, 3, 43, 51, 86, 45, -83, -8, 112, -37, -43, 108, -20, -34, 15,
    -65, 29, 16, -80, -4, 20, 73, -22, 3, -101, 3, 67, 83, -23, -12, 49,
    78, 8, -109, 75, -88, 46, 4, -50, -89, -48, -36, -77, 29, 91, 87, 102,
    -9, 32, -87, 62, 6, 110, -23, 88, 46, 63, -29, -108, -78, -127, 17, -47,
    115, 94, 7, 4, -44, -8, -22, -20, -6, 49, -9, -27, -88, -23, -30, -31,
    0, -27, 26, -76, -45, 58, -3, -39, 2, -1, 12, 79, -33, 114, 70, -76,
    10, 1, 9, 15, -4, -29, -35, 43, 47, -29, 27, 83, -56, 42, -7, 1,
    -40, 65, 88, -2, -101, -40, 11, -36, 30, 33, 87, -39, -127, 7, 52, 47,
    -63, -36, 69, -91, 108, 7, -67, 102, 46, -26, 35, -76, -98, -56, -31, -32,
    -35, -13, 35, -40, 4, -24, 70, -10, -8, -40, 30, 66, 1, 47, -36, -9,
    90, -59, 39, -62, -92, 67, -42, -69, -13, -6, 51, -55, 24, 52, 65, -54,
    17, 20, 69, -44, -82, -123, -5, -127, 10, -20, 27, -46, 42, -71, 10, 0,
    -89, 40, -67, -7, 51, -37, 6, -80, 31, 51, 94, -31, -106, -104, 43, 51,
    16, -8, 85, -13, -94, -17, 80, -66, 71, 48, 67, 81, 41, 34, -23, -90,
    33, 67, -32, -30, 8, -40, 13, -107, 51, 26, -94, -53, -65, -81, -38, -28,
    -95, -31, 23, 50, -59, -8, 5, -57, 48, -90, 62, 96, 10, 18, -63, -40,
    -38, -17, -12, 36, -68, -36, -47, -45, -114, -88, -22, 103, -13, -48, 63, 42,
    48, -3, -22, 39, 47, 29, 60, -81, 102, 32, 109, 105, 83, 86, 124, -68,
    -37, 1, -78, 96, 14, -40, -73, -127, 13, 73, 87, 95, 31, 0, 12, -44,
    38, -103, -40, 64, 14, -43, 60, -110, 41, 80, 49, -63, -122, 25, 29, -82,
    80, -12, -51, 3, 111, -58, -41, -60, -72, 11, -39, 12, -91, 50, 28, -23,
    -83, 18, -52, 77, -17, 7, 71, 48, -79, -122, -100, -39, -9, -110, -8, -69,
    83, 76, 42, -84, -92, 33, -8, 35, -97, 81, -63, -53, -49, -29, -40, 8,
    67, 26, 13, -34, -57, 32, -59, -127, 95, 27, 60, 2, 46, -36, 104, 46,
    -13, 70, -28, -41, 22, -73, -12, -113, -45, -54, -7, -38, -71, -119, -42, -74,
    -88, -57, 75, -20, -87, -45, 102, -21, -7, 88, -24, -18, 23, 4, -62, -65,
    9, 30, -55, 23, 35, -77, -20, -95, 18, -56, -53, -56, -96, -44, -53, -41,
    -49, 21, 57, -75, 6, -54, 29, -51, -62, -63, 42, 6, 13, -35, -82, -39,
    -3, 11, 73, 39, 54, -19, -42, 85, 112, 76, 76, 66, 71, 83, -98, -109,
    -30, 69, 97, -7, -80, -48, 59, 97, 20, -47, 87, 127, -70, -66, 45, -61,
    87, -41, 21, -81, -112, 25, -34, -70, 78, 9, -38, -95, -70, -42, 50, -117,
    57, 97, -5, -127, 27, -32, 49, -4, 46, -6, 21, 57, -82, 6, 103, 72,
    15, -7, 78, -114, -24, 87, 16, -7, -38, -76, 28, -92, -37, -63, 53, 37,
    -74, 27, -5, -58, 72, -76, -107, 13, -17, -60, -125, -54, 103, -98, -82, -31,
    -47, 26, -45, 47, -127, 1, 22, 35, -33, 91, -61, 82, -15, 32, 51, -8,
    -4, -35, -38, -12, 54, 17, -16, -87, 3, 54, -58, 86, 11, 57, 87, 37,
    -47, 40, 53, 41, -40, 19, -78, -22, -51, 32, 103, -43, -34, -49, -61, 37,
    -101, -59, -54, -6, -64, -37, 114, 11, 28, 89, 19, -1, -67, 45, -59, -11,
    -19, -55, -33, -76, -31, -35, -62, -90, 98, -1, -77, -98, -35, 22, 43, -11,
    24, -45, 22, -6, -56, -15, 26, 62, -56, -51, 5, 24, 14, -62, 45, -88,
    -35, -45, 59, 102, -6, -34, -17, 70, 93, 65, -3, 0, 8, -16, -35, 40,
    12, -8, 29, -28, -5, 125, 18, 113, -40, -8, -24, 13, -11, -15, -91, 31,
    8, -47, 64, -63, -3, 14, 32, 112, 11, 22, -29, 5, 34, 109, -38, -49,
    36, 98, -4, -92, 55, -16, -5, -4, -20, -49, -29, -4, 45, 105, 12, 127,
    5, -8, 89, -1, -12, 27, 35, 75, 75, -72, 118, 34, 0, -7, 70, 24,
    106, 17, -41, -29, 0, -13, -8, -5, 73, 92, 14, -59, -6, 107, -14, 50,
    39, 44, -48, -102, 7, 38, 22, -76, -91, -63, 3, -1, -9, 18, 36, -44,
    -4, 8, -33, 34, 3, -123, -22, -123, 42, 11, 23, -8, 2, 11, 94, -33,
    -10, 40, -69, 64, -1, -18, -29, -113, -13, -27, 29, -3, -37, -108, 42, 52,
    -33, -98, 0, 97, -55, 16, 8, 6, 18, 49, 32, 8, -51, -110, -14, -127,
    -10, 7, -88, 3, 16, -31, -32, -70, -70, 72, -117, -35, -7, 2, -68, -20,
    -105, -22, 42, 27, -3, 9, 6, 5, -69, -97, -14, 57, 9, -107, 9, -53,
    -23, 37, -19, 28, 92, -56, 12, -104, 20, 63, -33, 32, -16, -32, 72, -101,
    -21, 2, -86, 47, 55, -116, 15, -56, 91, -59, 77, -27, 69, -56, 31, 17,
    47, 50, 13, -5, -63, -9, 56, 23, -57, 48, 50, -15, 24, -41, 18, -37,
    -20, 34, 44, -51, -16, 73, -26, -15, 38, 89, 90, -59, -105, 14, -11, 25,
    68, -21, -24, 33, -25, 59, -5, -67, -101, 90, -127, 47, -40, -15, -12, 83,
    -96, -67, 71, -19, -32, 55, -19, 64, -57, 18, 69, 33, -25, -4, 31, -13,
    52, -20, 13, 16, -25, -39, -20, 87, 97, 76, -44, 91, 60, 23, -3, -29,
    -86, -5, -45, -1, -83, -38, -27, 105, 53, -84, -68, 14, 6, -73, -22, -52,
    14, 50, 114, -105, 79, 30, 72, 127, -16, 11, -30, 74, -23, 100, 5, 60,
    58, 111, -55, -103, -33, 44, 9, 15, 35, -7, 10, -67, 90, -20, -76, 83,
    108, -28, 113, -47, -84, 9, 39, -41, 95, -74, 6, -30, -48, 100, -41, -46,
    -6, 103, 31, 37, -6, 54, 33, 74, 31, 116, 67, 13, -97, 61, -51, 55,
    -38, 46, -42, -109, 79, 79, 18, -21, 36, -33, -23, 47, 114, 1, 83, -6,
    7, 12, -123, 101, -29, -125, -24, -69, -37, -21, -13, 6, 0, -61, 27, -55,
    56, 34, 26, -57, 50, 4, -73, 23, -32, 11, 58, 15, 68, -127, 118, 50,
    29, -117, -95, 122, 75, 82, -16, -18, 16, -50, -77, 62, 75, -126, -102, -44,
    -34, -21, -66, 43, -55, 40, 83, -24, -65, 39, 0, 26, -74, 16, 56, -5,
    -25, -28, 38, 73, -88, 70, 10, 19, -62, -74, 60, 0, -7, -78, 50, -31,
    -71, -43, 51, 10, 87, 36, 60, -61, 45, -28, 19, 21, 61, -17, -11, 4,
    32, 33, -70, 81, 33, -17, 5, 10, -18, 9, -31, -23, -33, -127, -70, 59,
    4, -58, -13, -48, 5, -17, 41, -22, -17, 16, -43, -88, 16, -1, 17, 18,
    75, -44, -119, -7, 76, 19, -24, 30, -43, -52, -21, 51, 46, -89, -19, -21,
    -13, 30, -36, 82, -57, -44, 71, -34, -14, 30, -15, 46, 39, 16, 81, 58,
    71, -10, -39, 12, -56, 28, -33, 8, 57, 12, -85, -76, 16, -39, 24, 9,
    53, -66, -20, 76, -40, -25, -42, -88, 60, -43, -56, -10, 9, 82, 80, -7,
    -70, 3, -11, 79, -39, -72, 24, -43, 27, 39, 35, 69, -86, -103, 70, 98,
    -44, 88, -1, -44, -66, -53, 81, -52, -38, 88, -46, 105, 20, 72, 14, -21,
    59, 24, -47, -91, -68, -18, 41, -72, 16, 55, 61, -39, 19, -84, 74, -61,
    8, -31, -69, -85, -50, -60, 69, -13, -54, -1, -15, -21, 64, -96, -71, 23,
    66, -95, 36, 127, -9, -65, 82, 85, 9, -75, 0, -49, -78, 66, 97, 45,
    -82, 89, 48, 58, -25, -18, -81, 75, -21, -105, 98, 5, 49, -10, -9, 75,
    79, -53, -1, 48, 9, -63, 78, 66, -4, 99, -9, -12, 98, -18, 20, -7,
    -89, 95, -99, -65, 15, -4, -9, -25, 87, -102, -44, 22, -94, -119, 88, 30,
    -58, -11, -3, 10, 83, 27, 80, -83, -37, 47, 45, -30, 65, -107, -48, 36,
    -55, -82, -59, -86, 21, -30, -49, 12, -7, -81, -127, 53, 62, 59, -127, -12,
    46, 78, 98, 106, -30, -80, 52, 70, -41, -42, -22, -91, -26, -66, 29, -49,
    92, 102, -9, -15, -98, -8, -84, 63, 80, 68, 76, 39, 7, 69, -78, -27,
    45, -44, -29, -71, -58, -10, -70, -50, 60, -8, 37, -20, -78, 32, 121, -101,
    36, 3, -68, -52, 33, -51, 45, -45, 72, -68, 47, 76, -87, -41, -18, -20,
    7, -21, 29, -43, -68, 53, 6, -96, 6, 15, 51, -52, -57, -28, -34, 35,
    20, -2, 115, -39, 54, -7, -114, 64, 127, -12, -35, 44, -25, 25, 9, 16,
    -46, 2, 62, -26, -42, -72, -73, -33, 5, 38, -37, -80, 58, 98, -104, -30,
    31, 52, 18, 34, 110, 96, 82, 17, -91, 8, 82, -83, -63, -76, 33, 74,
    24, -33, -23, -37, 24, -85, -66, -87, -22, 69, 17, 71, -127, -114, 64, 72,
    74, -119, 25, -90, -44, -23, 72, -51, -99, -109, -43, 47, 40, 28, -51, -68,
    118, 41, -88, 37, 71, 94, -83, -25, 31, 64, 23, 25, 1, 37, -90, 15,
    -96, 20, -104, 93, -65, -20, -28, 5, -48, -19, -58, 66, 6, -39, 114, 46,
    -12, -31, -50, -51, -61, 21, -111, -87, 84, -43, -21, 3, -28, 48, -36, -12,
    -89, 27, -75, 54, -9, -33, -33, 44, 101, 24, 74, -49, 4, -64, -63, 15,
    -49, 29, -40, -84, -39, -116, 17, -56, 78, 60, -72, -69, -64, 45, -67, 17,
    9, 52, -41, 41, 55, -11, 80, -88, -60, 3, -2, 14, 94, -76, 34, 18,
    83, 24, -47, -27, -34, 56, 64, 36, 57, 46, -1, -17, -30, -22, 61, 47,
    -15, 94, 53, -61, -127, -69, 6, 3, 29, 48, -61, 78, 46, -46, -70, 52,
    96, -62, 17, -83, 44, 33, -38, 62, 36, 61, 10, -22, 52, 19, -78, -36,
    75, -46, 102, -2, 80, -57, 77, -44, 98, 96, 37, 31, 29, -32, -48, 28,
    -40, -7, 60, -116, -10, 40, -79, 93, 4, -76, -15, 50, 53, -24, 92, -40,
    -83, -36, -53, 14, 60, -87, -85, 78, -26, 78, 88, -51, 54, -89, 42, -96,
    -23, 120, -6, -77, 50, -15, 127, -78, -14, -80, -50, -22, -85, -61, -17, -35,
    -68, 4, -38, 34, 90, 92, 20, 6, 45, -75, 95, 42, 65, -42, -64, 42,
    107, -26, 102, 62, 33, -44, -43, -33, 33, -34, -112, -92, -20, 103, 21, -102,
    55, 34, -85, -26, -102, -36, -54, 39, -19, 39, -23, 28, -98, -13, -10, -26,
    -41, -31, 52, -93, -27, -16, -19, -60, 29, 72, 13, 46, 13, 37, 71, -5,
    -5, 38, -26, 22, -6, 8, -58, -20, 16, -26, 30, 108, -47, -20, -24, -19,
    -93, -18, 64, 3, -36, 19, 62, -74, 10, 87, 18, -51, -81, 45, 16, -7,
    56, -25, -11, -80, 57, 23, -98, -23, 39, -35, 11, -49, -29, -29, -127, -30,
    -126, -2, 98, 27, 62, -25, 42, 45, -20, -46, 4, 69, 6, -3, -17, -25,
    35, -14, -49, -56, 79, 90, -52, 43, -127, -103, -4, -30, -34, 89, 55, 2,
    -64, 6, 98, -37, 16, -9, 70, 22, -71, 56, 34, 34, -77, 113, 23, 32,
    36, -20, -68, -48, -91, 103, 33, -19, -93, -72, 65, -107, 27, 34, -98, 67,
    -101, -65, 42, 65, 100, 100, -88, 24, -116, 62, 28, 79, 54, 88, -6, -125,
    -40, -3, -122, 93, -72, -77, 102, -114, -61, -21, -5, -30, 91, -45, 28, -101,
    -97, 39, 56, -19, 56, -22, 61, 31, -29, -2, -126, 97, 90, 36, -45, -62,
    -11, 38, -91, -94, -61, 85, 29, -108, -76, -65, -13, 9, -84, -85, -14, -11,
    73, 24, -46, -85, 14, -23, 48, -94, 22, -60, -56, -33, -28, 8, 124, 62,
    73, 29, -15, 127, -69, -104, -50, 56, 95, -55, -43, -57, 28, -47, 84, -33,
    62, 45, 77, 71, -102, 20, -52, -38, 65, -23, 82, 6, -69, -58, -90, 28,
    -12, 87, -4, 25, 23, 39, -36, 38, -52, 82, 10, 25, -16, 31, 47, 9,
    24, -101, 14, -102, 4, 11, 42, -37, 14, -73, -3, 86, -82, 8, -107, 31,
    -50, -75, 12, 105, 50, 45, -16, 57, -1, 15, -75, -13, 14, -60, 35, 31,
    92, -34, -4, -21, 57, 17, 45, -8, 40, -93, -15, -32, -27, -12, 23, 58,
    52, -45, 77, -33, -36, 27, -29, 127, 28, 62, 3, -48, 1, 10, -24, -19,
    -40, 86, 66, -79, 38, -93, -82, 12, 19, -65, 69, 4, -79, 21, 20, 37,
    -73, -10, 95, -44, 45, -55, -16, 31, -46, 26, -12, 40, 4, -14, -6, -40,
    29, 83, -48, -53, -37, -51, 0, -77, 79, 86, -53, 37, 14, 8, 21, -39,
    -49, -94, -55, -7, 3, 31, -127, -81, -4, 111, 46, 104, -50, 43, -102, 59,
    -1, -22, -41, -121, -54, -2, -67, 59, -16, 18, -95, 20, -61, -102, -47, -88,
    -86, 89, 79, -72, 20, -63, 114, 87, 47, -102, -57, -14, -89, -53, 27, -121,
    17, 9, -15, -35, -41, -105, -85, 75, -18, 114, 4, -10, 64, -81, -63, 70,
    -30, 80, -6, 75, 15, 17, -92, -31, 8, 29, 36, -13, -4, 94, 74, 42,
    -87, -41, 80, 109, -50, 24, -22, 85, 1, -73, -104, 2, 41, -44, 86, 45,
    59, 38, -100, -9, 49, 47, -124, -60, 116, -86, 93, -24, -5, 48, 30, -57,
    55, -98, -59, -12, -37, 101, -66, 123, 50, 31, 74, -95, -91, -14, 43, 58,
    13, 114, 35, 47, -61, 44, -15, -65, -49, -65, -19, -53, 127, 82, -116, 1,
    119, 14, 28, 17, -19, -68, -62, -29, 88, -102, 16, -51, 2, -2, -40, 27,
    20, -73, 95, 119, -54, 20, -34, 104, -9, -106, 44, 109, -4, -28, -24, 61,
    125, -21, 51, 55, 96, 80, -75, -91, -102, 95, -56, 53, -23, -24, 101, 8,
    -41, 21, -68, -127, -20, -3, -65, 79, -58, -38, 100, 14, -18, 4, -102, 97,
    14, 53, -88, 91, -66, -42, -70, -73, 38, -112, -114, 25, 44, 9, -18, -45,
    -2, -22, -90, 88, 44, -69, -64, -93, -59, 91, 33, 55, -28, -32, 18, -65,
    -115, 67, 5, 75, 49, 50, -43, -29, -6, 20, 21, -85, -85, 43, 16, -53,
    67, -37, -104, 84, -74, -48, 74, -9, -70, 101, -5, -119, -84, -19, -44, -103,
    -81, 41, -88, -103, 30, 33, -109, -115, 60, 85, -45, 106, 80, 79, -65, -51,
    51, 19, -58, 95, 84, -78, -103, -80, -23, -9, -48, -81, 49, 80, 66, 79,
    60, -35, -72, -35, 33, 69, 8, -6, -36, -55, -26, -41, 9, -50, -16, -59,
    58, -80, 6, -82, -46, 90, -3, 42, 73, -63, -28, 8, 22, 52, -88, -81,
    17, 127, -20, 7, 79, -96, 50, 66, -34, 70, 58, 70, 76, 30, 60, -18,
    1, 83, -22, 41, -48, 39, 42, 115, -2, 48, 100, 27, -96, 56, -82, 26,
    -65, 41, -29, -98, 35, -22, -21, -37, 54, 94, 44, 11, 45, 94, 77, 81,
    -49, -2, 44, 60, -79, -37, -43, 82, 84, -62, -33, -6, -23, -34, -82, -58,
    -4, 11, -3, -100, 97, -88, -15, 59, -10, -80, 74, -5, 95, -10, -71, -91,
    2, -27, 100, -5, -70, 16, -89, -15, 38, -100, -66, -52, -56, -44, 52, -96,
    65, -98, 82, -70, -106, 65, 106, -38, 90, 16, 64, -16, -47, -72, -78, 57,
    45, 87, -89, 91, 85, 38, -47, 62, 74, 82, -107, 1, 36, -101, 127, 68,
    -67, -91, 10, 99, 33, 22, 8, -102, 65, 35, -98, -14, 100, -73, -64, 50,
    15, 49, -26, -86, 3, 44, 27, 14, -75, -72, -4, 25, 51, 7, 8, -55,
    -87, -12, 8, -85, 21, -80, 15, -120, -11, 29, 20, 62, 32, 58, 3, 9,
    -25, 9, 25, -9, 2, -2, -41, -116, -65, -30, 37, -17, -30, -120, 38, -32,
    -58, -101, -63, -7, -62, 18, 48, 21, -17, 27, 8, 6, -6, -12, -6, -45,
    34, 24, -35, -57, 14, 7, -13, -87, -21, -30, -93, -32, 12, 31, 44, 39,
    -31, -28, 28, 48, 18, -6, -12, 34, -13, -77, -31, 84, 7, -127, -6, -73,
    -85, 48, 126, 89, 64, 102, -49, -5, -76, -84, -85, -89, 37, 36, 40, 73,
    -86, -36, 71, -112, 77, 20, -86, 17, -8, 20, -7, 43, 91, 76, -19, -85,
    98, 35, 108, 19, -2, 59, 45, -24, 8, 2, 71, 33, -33, 88, 107, 76,
    28, -7, -82, 62, -75, -91, 40, -90, 36, -55, -6, -39, 90, -101, 17, -11,
    -104, 96, 37, -82, -123, 43, 100, -39, -41, -100, 58, -46, -44, 46, 127, 57,
    59, 96, 2, 35, -19, -67, 38, -43, 71, -80, -120, -13, 83, -98, -19, -1,
    -10, 26, -45, -98, -15, 18, 6, -5, -67, -53, 21, 22, 9, -11, 44, -35,
    -40, 13, 7, -7, 15, -114, 1, -84, 19, 42, -14, 9, 22, 24, 12, 5,
    -12, 17, -21, 38, -4, -1, 12, -118, -37, -27, 28, -7, 16, -108, 21, -3,
    -30, -127, -33, 21, -17, 60, 26, 22, -35, 35, 2, 3, 48, -3, -21, -97,
    32, 5, -95, 11, -12, -33, -20, -105, -37, 0, -94, 0, 19, 33, -45, 24,
    -28, -29, 24, 11, 7, 5, -26, 38, -45, -78, 0, 55, 0, -113, 3, -52,
    65, -54, -34, -53, -78, 5, 107, -10, 54, -60, 20, -85, 33, 37, -62, 110,
    25, 68, 113, 48, 15, 68, 126, -96, -21, 47, -5, -127, -64, -73, 51, 86,
    -9, -97, 9, 25, -23, 28, -84, 44, 68, 72, -17, 102, -13, -100, 85, 115,
    46, 113, 47, 63, 61, -97, -9, -50, 33, -109, -5, 57, -55, -67, -78, 42,
    -118, -18, -31, 58, -119, 16, -28, -12, -107, -98, 24, 23, 110, 115, 99, 39,
    61, 52, -113, 87, -2, -24, -54, 77, 78, 0, -46, -83, 72, -64, -89, -100,
    35, 93, 2, 2, -90, -81, -68, -64, -66, -65, -31, -48, 30, -2, 22, 29,
    -102, -41, 5, -97, 49, -108, 58, 68, 40, -33, 67, -70, 7, 70, 111, 8,
    -15, 4, -121, 43, -81, 5, -20, 27, -56, 61, -18, -6, -94, 64, 9, -89,
    -16, 10, -28, 94, 46, 9, 105, 76, -21, 12, 33, -35, 73, -91, -59, 10,
    -86, -29, -112, 61, 6, -81, 64, -72, -34, 42, -100, -13, -40, -23, -71, 62,
    -76, -77, 59, 35, 3, 3, 106, -18, -122, -127, 33, 65, 4, -110, -77, -87,
    75, 30, -23, -119, 93, 25, 111, -122, -88, -20, 77, 40, 86, 62, 39, -55,
    126, -27, 50, 59, -40, -34, 9, 64, 57, -4, -39, 54, 76, -63, 89, 4,
    66, 9, 75, -108, 42, -74, -16, 49, -72, -67, -51, -25, -23, -112, 27, -8,
    -15, -24, 31, 15, -86, 43, 22, -43, 89, -6, 73, 64, -14, 41, 13, 66,
    -4, 38, 75, -58, 97, 0, 49, -82, -37, 73, -95, 14, 92, -87, 50, 15,
    89, -30, -126, -66, 28, -52, -103, -28, 35, -87, -59, 51, -76, -127, -19, 88,
    -41, -89, -74, -10, 57, 15, -31, -80, -23, 39, 69, 54, -41, 52, 15, 15,
    68, -37, 19, 7, 4, -12, 49, -73, 66, -68, -77, -49, -17, -7, -104, 54,
    17, 92, -59, -76, 4, 71, 101, 51, 25, 39, -28, -87, -72, -49, 18, 75,
    69, -57, 30, 70, 24, -5, -46, -1, 80, -25, -18, 50, -21, -28, 11, 70,
    9, 5, -33, 39, 5, -47, -85, -38, -34, 25, 89, -24, 47, -36, -49, -70,
    -36, 65, 63, 82, -17, 23, 0, 103, -57, -21, -88, -6, -66, -49, 27, 127,
    97, 79, 3, -7, -71, 87, 23, 84, -105, -51, -70, -88, -42, 62, 72, 44,
    -40, 54, 95, -18, -37, -103, 80, -47, -97, 48, 65, -44, -119, 10, -17, -6,
    -41, 84, 52, 61, 32, 26, 67, -23, 42, 38, -122, 58, -28, -103, 83, -85,
    46, -94, -44, -85, 57, 6, 100, 34, -48, 6, 65, -76, -91, -43, -56, -33,
    103, 53, -70, -69, 90, 2, -40, 4, -25, 24, -21, 69, 60, 42, 68, -39,
    -95, -15, -79, -49, -79, -32, -98, 12, 62, 62, -127, 106, 32, 60, 64, -8,
    -18, 95, -86, 44, 79, 17, -60, -66, -33, 69, 12, -13, -55, 13, 68, 12,
    -2, -70, 67, 4, -98, 46, 60, -33, -8, 106, 105, 11, 98, 46, 58, 2,
    -16, 74, -52, -56, 59, -23, 71, -58, -78, -11, -14, 34, -69, -113, 6, 76,
    -87, -87, -6, 89, 78, -1, 2, -78, 83, 80, 22, -97, 72, -43, 1, 12,
    13, -50, 20, 84, 10, -64, -64, -127, -79, -96, -40, -65, 66, -71, -97, -65,
    -51, 32, 87, 114, -12, 14, 7, 74, 13, 35, 70, 109, 4, 35, -46, -51,
    -34, -31, 8, -108, -59, 22, 16, 108, -91, 0, 66, -66, 35, -45, -14, -51,
    -42, -30, 123, 15, -87, -10, 84, -63, -93, -21, -67, -32, 18, -85, -121, -43,
    -75, 3, 55, 40, 113, 65, -73, -34, -70, 67, 25, 27, -57, 62, -102, 34,
    -97, 59, -88, -89, 62, 86, 3, 35, 73, -103, 37, 16, -47, 75, 102, 60,
    -60, 77, 79, 61, -15, 91, -61, -94, 46, 32, -19, 127, 98, 76, 118, 100,
    76, 90, 2, 117, 79, -50, 42, 12, -23, 86, 10, 105, 6, 2, 78, -52,
    42, -38, -43, -34, 52, 32, 95, -58, -28, -24, 73, 108, 16, -79, -35, -1,
    -91, -34, -80, 50, -19, -115, 45, -116, 13, 113, 36, -78, 16, 9, 49, 86,
    64, 8, 34, -71, 62, 45, -49, -72, -47, -69, 50, -20, 40, -71, 80, -33,
    -29, -70, -10, -25, -71, -47, 72, 39, -65, 73, 9, -24, 25, 7, 48, -127,
    -60, -60, -107, 3, 40, 6, 25, -26, -14, -66, 38, 80, -1, 20, -20, 103,
    -4, -32, -33, 21, 38, -76, 37, 44, 10, 8, -29, 35, -56, 14, -74, -92,
    -61, -60, 28, 103, -9, 65, -20, 99, 88, 72, 30, -69, 99, -66, -83, -36,
    -18, 32, 29, -88, 77, 124, 51, -53, 29, 9, 8, -77, 66, -38, -88, 79,
    37, 20, 68, 6, -17, -13, 57, 41, -69, -50, -81, 4, 61, 90, 14, 17,
    -37, 127, 33, -68, -39, -106, -31, 51, 8, -60, 17, -62, 7, 79, 53, 14,
    -30, 29, 94, -28, 7, 9, 4, -45, -59, 50, 1, 79, 60, -17, -13, -5,
    -2, -41, 72, 4, -6, -67, 22, 2, 116, 13, 44, -8, 41, 46, -16, 50,
    -38, 55, -71, -42, 115, -35, -73, -77, 118, -1, -103, -22, -39, -57, -69, 81,
    48, 50, 2, -62, -47, -40, -69, -77, 8, 42, 100, 13, -32, -9, 34, -16,
    -38, -40, -81, -97, -46, -1, -78, 64, -63, 104, -96, 57, -75, -24, -89, -103,
    -100, 26, 92, 39, 59, -7, -37, -49, -12, -110, 56, -27, -90, 21, 7, 94,
    -83, 112, 6, 9, 109, 6, -82, -85, 127, -101, -11, 63, -94, 87, 56, 40,
    28, 13, 53, -88, 17, -52, 96, 76, -6, 80, -26, 43, -21, -34, 39, 62,
    101, 40, -84, 7, 6, 101, 38, 104, 23, -111, -78, 107, 92, 22, -103, 97,
    44, -103, 40, 106, -86, -10, 41, -70, 63, 113, 127, -68, 16, 113, 83, -36,
    89, 67, 25, 70, 69, -5, -29, -80, -79, -73, 41, 34, -35, -39, 72, 2,
    -66, 83, 65, -15, 51, -107, 78, 22, -19, -47, 119, 2, -61, 50, 37, -54,
    93, 118, 39, -76, -49, -48, 68, 72, -60, 54, -10, -9, -45, -106, -78, 104,
    9, 4, -82, -13, -39, 20, -104, 33, -110, -102, -9, -1, -41, 44, 26, 42,
    27, 10, -111, -57, 63, 64, 30, 114, -70, -49, 5, -23, 95, -94, 23, 101,
    -82, 96, -60, 27, -36, 0, 33, 11, -38, -22, -100, 6, 103, -75, -53, 49,
    51, 41, 60, 1, -5, -62, -108, -101, 21, 95, 75, 60, 25, 43, 15, -57,
    -24, -109, 70, 26, 98, -7, 77, 41, -38, -11, 52, -20, 103, 53, -43, -79,
    -11, 45, 15, -24, -101, 61, -24, -127, 0, -30, 53, 47, -20, 7, -85, 27,
    14, 69, -74, -29, -33, -66, -108, -73, 51, -27, -19, 38, 1, 12, -49, 66,
    -25, -41, 52, -127, -63, 72, 44, -19, -35, -49, 49, 32, 55, 90, -58, -89,
    -52, -42, -63, 75, 95, 36, -58, -53, -87, -16, 94, 20, 49, -92, 24, 92,
    -48, 83, 49, -86, -74, 7, -108, -121, 13, -41, 1, -58, 76, 31, 75, -106,
    -47, 1, 25, -27, 60, 18, 32, 78, 46, -64, -72, 41, 94, -11, 83, -54,
    -23, -6, -123, 34, -105, 90, -75, 14, -88, -38, -95, 62, 90, -71, -81, 27,
    0, -7, 39, 3, 99, 8, -63, 53, -80, -79, 11, -16, -98, -7, 32, -1,
    39, -107, -33, -54, 122, -34, -82, -18, 17, 35, 108, 78, 42, 103, 51, 72,
    -114, 31, -6, -110, -31, 88, 60, 116, 64, -10, 111, 4, -4, -54, 63, 68,
    94, -28, -109, 0, 31, -62, -6, -14, 93, 18, -79, 77, 15, -18, 44, 105,
    54, 8, 86, -54, 123, -76, -3, 102, 31, -41, 61, 61, -94, -19, -85, -22,
    4, -59, -53, 75, -22, -112, 31, -127, -94, 50, 92, -16, -49, 75, -100, 63,
    84, 61, 24, 35, -80, -40, 40, 83, 6, 44, -121, 81, -81, -69, 114, -41,
    -99, -5, 105, 114, 21, 82, 79, 3, -70, -3, -18, 32, -34, -92, -105, -63,
    59, -89, 16, -61, -15, -11, 59, 104, -58, -10, 10, 86, 71, -56, 16, -64,
    61, 82, -58, -10, 71, -62, 3, 114, 13, 11, -61, -101, 56, -75, -122, -52,
    -83, 116, -43, -108, 72, 35, 64, -56, -42, -110, -110, -63, 41, -38, -14, 84,
    45, 55, 36, 82, -78, 76, -70, 34, -70, -18, -70, 18, 115, -26, 96, -26,
    117, 127, -79, 13, 7, -25, 47, -101, -43, 17, -106, -113, 21, -67, 102, -46,
    -6, 63, -127, -99, -13, -54, 27, 45, 8, 36, 74, 16, 40, -55, 75, -15,
    37, -79, -46, -64, 45, -4, -82, 80, 30, 89, -4, 27, 69, -39, 88, -70,
    9, -61, -50, 76, -23, -13, 82, 79, -72, -4, 30, 98, -39, -39, -60, 28,
    17, -4, -2, -63, -52, -28, 29, 35, 45, -60, -5, -24, 86, 75, -60, -63,
    -68, -18, -68, 31, -23, -32, -6, -30, 80, 80, -83, 29, -6, 43, -57, -8,
    -7, 34, 49, 28, 24, -68, -51, -48, -107, 85, -40, -51, -38, 39, -54, -78,
    -110, 9, 5, -102, -65, -79, 45, 57, 24, -45, -40, 35, -1, -29, -46, 24,
    9, 101, 99, -26, 34, -70, -77, 100, -7, -58, 52, 21, 57, 22, -31, -61,
    -82, 93, 74, -106, 94, -79, 67, 88, 71, 60, -67, -63, 47, 49, 78, -5,
    62, -86, -28, 37, 40, 81, -97, -71, 13, -20, -97, 34, 40, 36, 28, -47,
    -53, -93, 68, -44, 65, -29, 42, 94, -63, -127, 18, -46, 82, 64, 96, -8,
    -45, -85, -76, 117, -8, 5, -21, -50, 94, -12, -48, 88, 49, 53, 92, -59,
    -96, -72, 70, 74, 11, -22, 16, 15, 60, 37, -2, 19, 58, -31, -30, 16,
    1, 5, -16, -3, 21, 93, -14, 61, -25, -2, 8, -13, 18, -121, -97, 50,
    15, -4, -8, -84, 12, 28, -27, 100, -5, 36, -12, -19, 24, 98, -22, -40,
    43, 66, -46, -121, 80, -3, -18, -12, -19, -23, -43, 7, 33, 26, 6, 127,
    23, 12, 12, 31, -55, 9, 52, 15, 17, -63, 106, 36, 47, 24, 47, 16,
    54, 30, 3, 58, 13, 1, 20, 23, 77, 56, -24, -84, 0, 99, 21, 53,
    2, 105, -52, 9, 78, 79, 46, 69, -47, 2, -54, -103, 59, -90, -50, -46,
    -89, -92, -57, 3, -109, -121, -70, -106, 40, 11, 26, 109, -52, 2, 64, 78,
    22, 0, 38, -70, -83, -54, -73, -125, -82, 11, 46, 10, -38, -48, 72, -67,
    58, 10, -26, 107, -32, -39, 107, 43, 92, -14, -79, 84, -4, 46, -36, -19,
    -86, 8, 73, -44, 110, 32, 28, 91, -24, 4, 23, -74, -105, 52, -114, -48,
    7, 2, -59, -46, 63, -73, 67, -8, -65, -127, -18, 123, -53, -119, -10, 63,
    -56, 95, 113, 115, -74, -108, -126, 14, -39, 69, 0, 117, -109, -93, -14, 32,
    88, -17, 96, -50, -29, -42, -50, -53, -95, 9, -54, -74, -80, -106, -44, -65,
    99, -28, 41, -97, 10, -102, 64, 51, -124, 50, 9, -59, -59, 103, -82, 80,
    23, 61, -89, 11, 38, 105, -92, -27, 6, -69, -9, 75, 83, -29, 41, -93,
    97, -80, -86, 26, -29, 31, 107, 96, 85, -127, 2, 7, -118, 92, 66, -43,
    8, -63, 58, 28, -46, 55, -44, 34, 95, -52, -127, 42, -61, 50, -40, 84,
    17, -56, -91, 89, -97, 25, 79, -92, -97, 29, -54, -60, 65, -89, -24, -111,
    34, 0, 39, 23, -19, -33, 82, 1, 52, -74, -127, -68, -78, 39, -25, 10,
    83, -18, 3, 24, 51, 26, 1, 55, -21, -37, -36, -64, 83, -71, -75, -60,
    -5, -9, 76, 88, 61, -75, 53, 55, -44, 24, 6, 32, 52, 110, 88, 39,
    58, 59, -60, 44, -9, 35, -90, 77, 23, 37, -85, -16, -56, 89, -123, -15,
    -90, -100, 62, -98, 45, -10, -63, -1, 19, -59, -48, -48, 50, -79, 41, 66,
    102, 102, -53, -51, 99, -17, -90, -48, 95, -73, 38, -91, 73, 33, 67, 15,
    54, 94, -19, -80, -81, 63, -63, -103, -98, -52, 33, -109, -45, 114, -21, -35,
    56, -108, -66, 17, 41, -108, 112, -48, 20, 81, 32, 32, -111, -118, 29, 9,
    82, 62, -102, 23, -92, -67, 29, 6, -68, 36, 75, -116, 103, 54, -6, -127,
    -45, 40, -30, -25, -54, 101, 103, -80, -45, 105, -20, -60, 1, 87, -9, -107,
    -15, 61, -25, 70, 28, 8, 22, -13, -108, -92, -94, -31, -81, 4, 7, 94,
    -54, -38, -29, 1, -71, -87, -89, 127, 47, 12, 12, 41, -28, 66, 82, -12,
    -21, 28, 51, -99, 4, -11, -17, -50, 32, 80, -73, -58, 3, 54, -23, 70,
    -19, 83, -84, -24, -20, 41, -5, -44, -43, -12, -34, 58, 44, -21, -68, -29,
    -73, -35, -6, -5, 79, 53, 80, 0, 29, 42, -86, -34, 66, 87, 9, -56,
    83, -4, -29, -85, -23, 27, -46, -90, 56, -69, 58, 48, 2, 8, -106, -8,
    -16, -10, 45, 70, 76, -46, -64, 38, 30, 33, 9, 63, 21, -8, 65, -81,
    16, -7, -58, -26, 34, 9, 85, -107, -90, -47, -33, -16, 26, 34, 63, -16,
    17, 11, -104, 39, -27, -49, -39, 0, 46, -43, 7, -94, -43, 15, 74, -46,
    -37, 55, -51, 75, -31, -72, 17, -52, -18, -17, 38, 8, -36, -46, 77, 92,
    -26, -75, 87, 117, -41, 4, -53, 18, 46, 10, 12, 17, 7, -51, -58, -46,
    -66, 23, -84, 17, -14, -58, -26, -37, -85, 115, -76, 14, -23, -10, -30, -5,
    -127, -36, -8, -37, -21, 6, 66, -6, -56, 16, 60, 114, 5, -27, 57, 3,
    90, 58, 9, -91, 33, -50, 78, 34, -35, 48, -53, 22, -25, 9, 56, 91,
    -41, 97, -30, 89, 12, -7, -47, -69, -94, -53, -31, 93, 49, 35, -88, 66,
    64, -30, 19, -76, -67, -43, -93, -25, 19, 19, 121, 76, -105, -42, 74, -99,
    -21, 17, -55, 106, -85, -70, -77, -18, 50, 44, -45, 101, -65, 83, 30, -53,
    69, 40, -106, 32, 121, -92, -38, -92, 81, 68, 80, 17, -31, -23, -101, 74,
    -60, -1, 15, 28, -89, -29, 70, -73, -46, -75, -81, 127, 103, 68, -84, -19,
    28, 57, -13, -75, -28, -117, 33, 92, -33, -77, -8, 72, -112, 50, 94, -109,
    60, 36, -43, 70, -74, 86, -97, 73, -10, -78, 33, 11, 29, 83, 20, 29,
    -104, -94, -59, -47, -119, 19, 13, -35, 0, 42, -33, 33, -11, 46, -16, 31,
    -66, 90, 25, 14, 45, -97, 72, 97, 79, 96, -92, 102, 17, -85, 105, 69,
    -11, 120, 21, 53, -78, -99, 9, 0, -68, -68, 71, 52, -106, -69, -34, 7,
    -84, 76, -60, 70, -67, -127, 29, -43, 76, -53, 15, 93, -60, -47, 67, 86,
    12, -26, 108, 92, 11, 37, 29, -62, 21, 29, 14, -24, 96, -8, -19, 5,
    48, 26, -30, 57, 37, 86, 15, 93, -13, -51, 0, -67, -37, -89, -7, 1,
    16, 18, -59, -43, 10, -23, -69, 86, 4, 25, -47, -19, 6, 82, 22, 19,
    23, 74, 28, -11, 67, -34, -50, -13, 14, -40, -9, 31, -18, -39, 6, 127,
    -56, -5, -36, 60, -19, -26, 54, 58, -36, 7, 94, 48, 45, 10, 29, -24,
    -18, 6, -18, -12, -26, -1, 0, -60, 49, 60, 3, -46, -8, 106, -7, 23,
    57, 12, -70, -58, -50, 7, 23, -45, -76, 25, -38, 4, -103, 39, 62, -60,
    40, -61, -9, -18, -65, -92, -33, -71, 51, 37, -17, 99, -49, 85, 73, -58,
    -48, 32, -13, 91, -58, -51, 87, -86, -9, -67, 82, 51, -20, -81, 66, 9,
    -54, -83, 25, 69, -84, 33, 46, 25, 35, 54, 47, 41, -38, 8, -36, -127,
    -60, 6, 20, -67, 67, -38, -70, -16, 56, 64, -76, -77, -62, -68, -55, 31,
    -24, -64, 40, -55, -32, -43, 49, 16, -9, -88, 32, 60, 36, -42, -33, -58,
    12, -27, 108, 92, 10, 37, 28, -62, 21, 30, 13, -23, 95, -7, -18, 5,
    48, 25, -30, 57, 36, 86, 15, 92, -12, -50, 0, -66, -38, -89, -6, 1,
    16, 18, -59, -43, 9, -23, -69, 86, 4, 24, -47, -18, 5, 82, 23, 18,
    22, 75, 28, -12, 67, -33, -50, -13, 14, -40, -9, 32, -18, -39, 6, 127,
    -56, -5, -35, 59, -18, -26, 53, 58, -35, 7, 95, 47, 45, 9, 28, -23,
    -18, 6, -18, -11, -27, -2, 1, -60, 49, 60, 2, -47, -7, 106, -7, 22,
    -54, 53, -127, -70, -100, -93, 26, -39, -24, -45, -31, -32, 33, -42, -50, 53,
    66, 67, -9, 3, -54, -18, -3, -81, -13, 59, 28, 102, -28, -38, -99, 52,
    -48, -89, 21, -40, -64, 61, -40, 38, 82, 57, -28, 86, -62, 74, -21, -60,
    3, 66, -32, 58, 25, -57, -55, 52, 73, 65, 84, -71, -42, -14, -48, -17,
    46, 11, 73, -36, 87, 37, 43, 50, 15, 70, 58, -59, 7, -46, 9, -44,
    -57, -36, -77, 112, -9, -31, 15, 24, -72, 26, -62, -70, -54, -79, 90, 43,
    114, -71, -113, 37, -68, -47, -66, -78, -71, -69, 51, 11, 42, 91, 63, -96,
    54, 56, -50, -51, 30, -32, -79, -51, -24, 88, 57, 82, 7, -74, 121, 8,
    45, -70, -3, 35, -42, -62, 21, 68, 81, 30, 23, 67, -56, 77, 53, -127,
    95, -6, -94, -38, 88, -85, 41, -60, -96, 63, 73, 100, -106, 39, 82, -34,
    98, 108, -73, 43, 39, 21, 69, -1, -32, 92, 56, 32, -53, -101, -34, -12,
    -42, -57, 94, -18, -107, -74, -112, 86, -15, -79, -95, 61, -92, -117, -27, 61,
    -92, -82, 58, -127, 95, 98, 86, 92, 94, -72, 83, 58, 78, -36, -79, -85,
    30, 5, 11, 122, -95, 18, 27, -4, 74, 73, -68, 12, -78, -82, -105, 48,
    -12, -78, -32, -11, 52, 106, -99, -5, 117, 85, 60, -51, 28, 9, 14, 87,
    -43, -43, 92, 44, -117, -37, 77, 77, 81, -85, -87, 38, 99, 94, 46, 84,
    -92, 17, -25, 9, 47, -104, 17, -48, 47, -115, -80, -77, 105, 87, 124, 124,
    23, 13, 30, 31, 14, -98, 96, -92, 94, 57, 39, 59, 17, -66, -66, -66,
    -76, 29, 23, 10, 18, 108, 0, -62, -73, 114, -100, 57, 99, 49, -6, -19,
    73, -65, 35, -42, 56, -14, -81, -39, 66, 48, -97, -65, -26, -41, -46, 79,
    13, -39, -15, 42, -84, -108, -81, 74, 19, -99, 108, 70, -98, 91, -4, -4,
    113, 98, 20, -82, 89, 100, -21, -93, 97, -46, -65, -105, 43, 51, -44, -90,
    73, 5, 110, -15, 106, -27, -38, 82, 42, 85, 35, -87, -83, -26, -11, -47,
    118, -61, 18, 74, 28, -3, 51, -47, -91, 33, -83, -127, -78, 112, -81, 90,
    78, 17, -22, -73, -69, 95, -51, -42, 16, -10, 33, -97, 127, -78, -67, -90,
    83, -41, -43, 76, 5, 106, 37, 25, -77, -121, 31, -20, 87, -120, 23, 35,
    62, 59, -28, -107, -14, 93, -100, -45, 94, -1, -46, -6, 51, 30, 98, 11,
    -39, -31, 4, -17, 88, 36, 56, 84, 91, -116, -22, 2, 71, -16, 38, 25,
    -121, 3, -23, -43, 88, -99, -70, -55, -114, -14, -38, 102, 73, 54, 106, -92,
    -71, 86, 65, 7, 44, 25, -8, -60, 49, -70, 111, -98, -86, 106, -67, -46,
    -16, -93, -30, -22, -38, -11, -79, -15, -29, -103, -91, 91, -125, -13, -50, 96,
    83, 44, -54, -114, -29, 53, 1, -79, -86, 104, 19, 83, -105, 27, 117, -108,
    -116, -80, -73, -1, 42, -45, 79, 70, 65, -100, 53, 77, 71, -107, -16, -57,
    -62, 11, 5, 57, -88, -24, 61, -52, 23, -59, 95, 1, 36, 11, 6, 92,
    -44, 99, -60, -24, -52, 26, -127, 14, -43, 99, 106, 59, -113, 38, -100, 8,
    -92, 58, 1, 45, 43, 61, 88, 7, -76, 26, -36, 13, 14, 95, 95, -30,
    82, 48, -24, -58, -27, 27, -24, -65, -57, 8, -12, -7, -24, 17, 72, -46,
    31, -31, -15, 12, -40, -88, 1, 13, 38, -7, -65, 6, -34, 93, 85, -69,
    -31, 50, -42, 85, -30, -49, 59, -77, -3, -38, 49, 10, 8, -78, 61, 61,
    -52, -47, 63, 90, -97, 17, -1, 85, 38, 22, 43, 43, 2, 32, -36, -127,
    -67, -4, -80, -53, 55, -63, -44, 21, 3, 69, -74, -45, -13, -41, -49, -10,
    -1, -48, 8, -106, -61, -26, 45, -32, -44, -50, 52, 89, 12, -13, -17, -76,
    83, -52, -72, -69, -31, 13, 108, 38, -46, -9, -28, 36, 59, -74, 27, 63,
    -17, -77, 80, -111, 67, 20, -28, -45, 14, -60, 4, 97, 0, -107, 65, 95,
    101, -47, -104, -64, 84, 45, 79, 60, -125, -107, -23, -87, -70, 23, -28, 67,
    -54, 62, -89, -90, 120, 13, 123, -108, -59, -104, 79, 58, 12, 114, -81, -66,
    127, -35, 86, 64, 10, -66, -28, 89, 50, -57, 50, -16, 9, 33, 106, 122,
    124, -16, 10, -87, -9, 7, -92, 113, -25, -104, -77, -48, -96, 73, 12, -57,
    14, -73, 40, -12, 1, 23, -48, 56, -125, -22, 113, -12, -64, 118, -71, -35,
    70, -42, -9, 62, 86, -93, 127, 99, -73, -35, -29, -56, 107, 75, 35, 85,
    -73, 15, -54, 43, 31, -85, -12, 44, 6, -2, -73, 62, -104, -64, -84, -26,
    -45, 24, 97, 10, 8, 52, -123, -5, 32, -15, -18, -27, -64, 89, -28, -33,
    -46, -109, -74, -60, 10, -83, -76, -33, -54, -27, -84, 34, 7, -59, 61, 8,
    11, 120, -51, 77, -70, -35, 40, -71, 43, -106, -46, 120, -33, 23, 116, -31,
    -24, -13, -42, 9, 45, 99, 63, 127, -54, -76, -81, 55, 37, -20, 72, -57,
    -22, 2, 68, 85, -47, 80, 111, 16, -63, 27, 33, -43, 99, -95, -40, -20,
    -14, 49, 16, 12, -79, -55, 55, -30, 19, -72, -80, 52, 77, 2, -97, -76,
    -37, 56, -85, -62, -98, -85, 80, -48, -40, -3, -33, -42, 6, -53, 69, -25,
    63, 7, 75, 58, -44, 5, 24, -61, -75, 61, 55, -32, 38, 75, -52, -25,
    -85, -78, 81, 41, -40, 2, -67, -19, -21, 27, 22, -79, 45, -9, -64, -59,
    -11, 39, -107, -39, -86, -122, 61, -36, -108, -35, -63, 69, -4, -81, -52, -20,
    83, 20, -86, -31, 111, -104, -50, 114, -46, 99, -88, 85, 89, -18, -122, -36,
    30, -46, -105, -117, 63, 105, -51, -1, -87, 81, -90, -69, -39, -37, 1, -107,
    -40, -61, -33, -13, 17, 75, -66, 5, 107, 12, -107, 74, -89, 56, 94, -1,
    98, 104, 44, -32, 16, 92, 38, -122, 111, 117, 67, 83, 66, -58, -38, 46,
    42, 58, -6, -127, 70, -72, -103, 117, 57, 62, -53, 39, 4, 79, 14, 103,
    -7, 110, 115, -12, -98, -2, 102, -115, -50, 33, 27, 103, 36, -2, 27, -33,
    -100, -32, -124, 110, 3, 16, -8, -35, -93, -33, 25, -83, -76, 70, -17, 54,
    119, 127, -117, 19, -92, -4, 34, -44, 57, -47, 78, -13, 109, 66, 36, 46,
    -33, -88, 102, 102, 31, 121, 49, 102, -16, 4, -107, -105, 75, -71, 84, -112,
    -119, -112, 67, -78, -104, 15, -13, -96, 79, 117, 89, 80, -105, -43, -62, -119,
    94, -56, 24, -95, 82, 87, 96, 52, 93, 36, 27, -22, 86, -109, 87, -15,
    13, -74, -55, 7, -56, 30, 23, -112, 50, -53, -45, -41, 54, -102, -59, 26,
    -24, -21, -113, 23, 32, -35, 7, 21, -21, 81, 7, 14, -9, -7, 80, -9,
    15, 98, 55, -28, -92, 16, -51, -106, 89, -103, 127, -103, -68, 52, 17, -30,
    59, -87, -43, -85, -40, -68, 83, -18, 29, -51, -20, 83, 43, 70, 26, -88,
    59, 83, 31, 72, -49, -101, -85, -6, -10, -35, -38, -45, 86, -11, 68, 19,
    53, 43, -108, -77, -110, 100, 58, -46, -87, 49, 28, -46, -83, -49, 22, -84,
    -58, 1, 6, 76, 21, 9, -54, 127, -1, -10, 40, 13, -26, 36, -16, 38,
    -65, 19, 29, -38, 31, -63, 33, -46, 5, 4, 5, -14, 5, 21, -68, 64,
    19, -36, 68, -58, 8, 27, -55, -30, -54, 34, -72, 24, -16, 66, -28, -42,
    -52, 71, -34, -8, -31, -66, 15, -47, -65, 13, -55, 0, -18, 5, 27, 4,
    14, -4, 14, 5, -31, 107, 3, -47, -14, -96, 12, 42, 65, 4, 39, -28,
    -19, 33, 17, 86, 89, 9, -90, 18, 11, 61, 3, -24, 27, -39, 24, -28,
    -100, -99, 21, -88, 105, -25, -28, -99, -33, 101, -93, -107, 43, 28, -93, -67,
    118, -60, 34, -43, -127, -83, 74, 55, 31, 41, 40, 64, 100, 82, 47, 9,
    17, -83, 35, 27, 55, -28, 112, 35, -18, -9, -24, -24, 118, 43, -16, 22,
    62, -81, -57, 99, 19, 67, -61, -60, 46, 58, -116, -122, -14, 87, -119, 90,
    122, -15, -7, -7, 109, -21, 21, -36, -4, -32, 9, -35, -2, 21, -115, 87,
    85, 72, 82, 8, 41, 65, 99, -71, 52, -41, 51, 38, -97, -34, -92, -16,
    42, 24, 103, -83, 25, 117, -86, -85, 35, -36, 43, -62, -3, -99, 73, -59,
    -90, -60, 40, 117, 38, -21, -69, 40, 12, -27, -9, 25, 66, -91, -30, 51,
    -62, -19, 94, 88, -89, -38, 25, 70, -53, -102, -27, 75, -51, -127, 7, 76,
    -90, 17, 63, -5, -55, -45, -59, -10, -48, -2, -21, -91, 106, 17, 63, 41,
    74, -30, -38, -43, -80, -69, -48, 84, -102, -80, -102, -63, 99, -91, -80, -71,
    21, -29, -70, 83, 39, -74, -47, 61, 43, -94, -52, -50, 33, -108, 88, 16,
    44, 55, 103, -27, -29, -71, 89, -1, -34, 75, -26, -47, -44, 83, 24, -66,
    75, 58, -55, 29, -95, -93, -24, 66, -38, 53, -106, 76, -106, -33, 97, -28,
    -41, 80, -70, -3, -26, 34, -88, -78, -54, -6, 105, 44, -101, 84, 101, 127,
    25, 28, 75, 118, -5, -61, 72, -24, 81, 77, 52, -82, 97, 52, 52, 21,
    12, 48, -90, -86, 43, -57, -90, 112, -105, -35, -75, 98, 3, -51, 112, 78,
    73, 85, -127, -84, 52, -14, 55, 93, -30, -54, 90, -40, -73, 68, 19, -55,
    -3, -3, -1, 15, -32, 19, -14, 65, 12, 3, 16, 17, -31, -28, -28, 8,
    -16, -12, 79, -8, 3, -8, 32, -39, 7, 20, -19, 15, 16, -40, -46, 11,
    11, -8, 42, -3, 12, 45, 3, -10, -30, 0, -41, 17, 8, -5, -34, -18,
    10, 8, -10, -53, 10, -11, 17, -31, -9, 10, -22, -47, 15, 46, 23, -51,
    127, 7, 13, -24, 20, 48, -49, -58, 8, -20, -3, 9, 20, -7, -21, -7,
    -23, 20, 7, -10, 80, 14, -1, 31, -13, -41, 1, 11, -18, -30, -3, 42,
    -1, 76, 15, -14, -13, 50, -8, -12, 3, 20, 21, -16, -80, -5, -64, 35,
    50, -22, 79, -14, 36, -9, -13, -61, -3, -4, 127, 25, 18, -31, -7, 16,
    78, -25, 10, 27, 22, 72, -2, -1, 28, 14, -52, -4, -24, -27, -15, -50,
    -40, -6, -10, -60, -26, -51, 42, -77, -1, -11, 68, -60, -47, -70, 86, -5,
    70, -21, -21, 25, 73, 75, -33, -14, -3, -48, -61, 4, 10, -10, 17, -24,
    -46, 48, 34, 69, 53, 4, -4, -10, 8, -95, 11, 10, -18, -54, -10, 7,
    -8, -12, -41, -39, 89, 105, 33, 84, 43, -12, -78, 31, -35, 33, -80, -12,
    -59, -100, -104, 93, 2, -100, 25, -13, 82, 99, -32, -64, -52, -13, -88, 104,
    -34, 53, 64, 14, 68, 110, 38, 51, -91, 0, -1, 83, 47, 96, 72, -52,
    18, 127, 36, 47, 34, -51, 19, -69, 98, 4, 91, -89, -103, 27, 3, -36,
    71, -74, 101, -119, 13, -53, 22, 118, -20, 13, -46, -63, -88, 69, 9, 33,
    -75, -83, -111, -50, -3, -9, 44, -50, 100, -41, -109, 88, -77, -2, -6, -20,
    -29, -6, 13, 53, 2, 21, -53, 127, 19, 9, 31, 14, -24, 2, -26, 26,
    -53, -3, 70, -39, 25, -44, 37, -47, 7, 21, -4, 17, 0, 15, -54, 43,
    0, -43, 84, -25, 0, 27, -30, -26, -55, 18, -64, 32, -16, 8, -35, -47,
    -40, 60, -34, -26, -21, -49, 25, -49, -40, 19, -47, -18, -27, 36, 16, -29,
    52, 6, 35, -3, 7, 93, -9, -58, 10, -74, 21, 33, 42, -4, 24, -20,
    -24, 26, 19, 52, 94, -4, -63, 16, 6, 37, -3, -22, 15, -32, 5, -17,
    -88, 30, 16, 49, 19, -12, -57, 127, 30, -2, 27, 33, -61, 11, -28, 13,
    -40, 12, 48, -80, 10, -27, -10, -80, 14, 12, 32, -15, 24, 29, -94, 80,
    31, -19, 56, -38, 26, 62, -28, 0, -43, 43, -88, 38, -22, 32, -67, -38,
    -46, 82, -17, -77, -49, -55, 30, -58, -39, 23, -40, -53, -13, 31, 56, -14,
    86, 8, -16, -21, -20, 110, -27, -50, -25, -101, 5, 23, 23, -6, 15, -42,
    -21, 46, 30, 124, 113, 13, -57, 47, 3, -10, 34, 14, 21, -37, 39, -2,
    62, -127, -37, 20, 60, 93, -22, -88, 16, -60, 110, -32, -4, -20, 101, 69,
    -87, 25, 66, -5, 30, -97, -27, 71, 105, 40, -84, 36, -70, -87, -65, -21,
    16, -1, 123, 16, 95, -94, -42, 19, 34, 13, 91, -47, 123, 30, 25, 1,
    -76, 77, 33, 95, 98, -81, 98, -17, -76, 96, -53, 20, 23, -21, 42, 22,
    117, -38, -61, 34, -23, 3, -94, 73, -58, 5, 14, -25, 70, -76, -42, -74,
    62, -77, 74, -121, -79, 6, -122, 94, 81, -22, 86, -53, 10, -65, -23, -33,
    33, 49, -94, -19, 73, 83, 70, -22, 74, 52, -88, -4, -104, 3, 8, -69,
    47, 73, -102, -92, -71, 24, -127, -10, 97, -104, -13, -26, 75, -56, 91, -69,
    50, -4, 68, -36, -38, 111, -72, 40, 78, -12, 107, -105, -28, -72, 42, 118,
    -95, -79, -62, -75, 14, 3, -88, -62, -54, 1, -58, -110, -76, 73, 99, -43,
    27, -11, -60, 32, -55, -19, 65, -88, 90, 94, 17, -21, -69, -65, -91, -109,
    -9, 21, -103, 93, -85, 11, -5, 105, -56, -6, 48, 76, -95, -61, -1, -101,
    -23, -96, 62, -19, -118, 111, 49, -93, -14, 69, -67, 25, 46, -67, -44, -33,
    -68, 98, 14, -37, -11, -8, 22, 94, -85, -53, 37, -70, -7, -32, 98, -72,
    100, 67, -116, 5, -15, -127, -70, 99, 99, -88, 16, 31, 78, 87, 82, 102,
    -70, -48, 73, -59, -117, 76, 68, 57, 86, 54, 33, -22, 27, -44, 91, 90,
    -70, 40, -41, 83, -96, -17, 2, 95, 6, 39, -124, -62, 79, -9, 32, -92,
    60, -57, -15, 92, 48, -109, -39, 69, -30, 89, 60, 2, -74, 17, 93, 69,
    -74, -25, 40, -85, 26, 31, 122, -5, 114, 127, -68, 28, 54, -20, -84, 33,
    41, -107, -96, -104, -90, 121, -57, -35, -32, -58, 120, -30, 83, -60, 96, 40,
    -13, 5, 64, -76, -33, -84, -102, 66, -12, -50, 1, 78, 90, -42, 41, 6,
    -74, 32, 9, 46, 84, 38, 30, -125, -106, 67, -61, -12, 77, 52, -2, 39,
    13, 18, 106, -76, 108, 23, 93, -56, 74, -82, -96, 79, 54, 114, 61, -60,
    -96, 112, -12, -45, -74, -76, -45, -90, 123, 3, 40, -51, 9, 78, -32, 116,
    -54, -36, -71, -89, 52, -61, -70, -8, -76, -78, -59, 105, -4, -42, -19, 95,
    -76, 43, -1, -99, 77, 42, 85, 32, 16, 39, -75, 105, -64, 79, -95, -63,
    49, 57, -9, 12, -88, 7, 78, 90, -47, 49, 74, 45, 14, -79, 15, 15,
    -68, 70, -81, 76, -10, 55, -18, -64, 63, 65, 91, 21, -48, -52, -90, 1,
    127, -32, -18, 70, 92, 60, 4, 84, 90, -94, -68, -17, 57, -66, -36, 2,
    -26, 81, 71, 92, 89, -55, -97, -66, -10, 81, -26, 93, 81, -114, 53, -44,
    -116, 35, -36, -81, -88, 91, -38, 115, -43, 118, -24, 113, 32, -92, 38, 66,
    -102, -101, 35, 71, 104, -26, -98, 38, 14, 13, 82, 17, 101, 76, 15, 95,
    41, -118, 122, 5, -14, 104, 90, -87, 26, -65, -51, 36, -49, -37, 47, -42,
    37, 121, 25, 12, 106, -54, 9, -127, -57, -4, 92, 51, -21, -27, 29, -61,
    17, 35, -34, 98, 52, 11, -41, -14, 59, 19, -27, 49, 8, -90, -96, -8,
    89, -39, 84, -29, 106, -20, -57, 39, 62, -96, -5, 21, 22, 105, -110, 110,
    71, -120, -56, 27, -96, 101, -24, 12, 21, -41, -117, 6, -82, -34, 28, -39,
    80, -108, -90, 93, -69, 113, -27, 1, 106, -10, -93, -51, 33, 50, 113, -58,
    8, 92, -61, 24, -56, 6, 125, 108, -64, 34, 123, -28, 58, -107, 74, -12,
    127, 59, -48, -44, -63, -71, -105, 69, 87, -76, 80, -31, 49, 96, 60, -102,
    53, -52, -95, 6, -20, -7, 5, 68, 58, -67, -99, -76, 44, 101, -85, 34,
    8, 29, 42, -26, 53, -37, 127, -8, -106, 36, 80, 68, 2, 59, 18, -35,
    -97, 33, 7, 87, 43, 13, 3, 127, 31, 14, 47, 13, -33, 3, -54, 8,
    -74, 22, 15, -65, 72, -44, 12, -41, -3, 22, -8, 0, 32, 37, -103, 65,
    14, -76, 92, -54, 12, 45, -69, -1, -69, 53, -48, 27, -11, 47, -12, -58,
    -60, 69, -64, -31, -29, -64, 12, -38, -79, 20, -46, 22, -46, -25, 15, 44,
    -7, 10, 25, 22, -62, 91, 24, -18, 18, -126, 27, 26, 88, -7, 81, 19,
    -14, 23, 30, 72, 63, 17, -106, 6, 38, 84, -7, -60, 50, -31, -21, -15,
    106, -104, -75, 13, -69, -100, 31, -54, 39, -52, -3, -24, -39, -48, -103, 105,
    -8, -66, 124, 14, -11, 46, -13, 9, 107, 58, 98, 62, -50, -21, -19, 121,
    -43, 69, -23, 112, 39, 58, -88, 4, 74, -95, -33, -88, -109, 117, -65, -14,
    -114, -78, 98, 21, -28, -31, 116, 44, 73, 116, -4, 10, -14, -59, -107, 98,
    96, 18, -37, 123, -44, 17, -54, -83, -80, 94, 107, 62, -29, -46, 66, 87,
    82, 47, -17, -37, 127, -87, -105, -8, -9, 59, -66, -39, -70, 91, 7, -53,
    -8, 70, 79, -114, -92, 26, 36, -83, 65, 9, -64, -101, 3, 37, 49, 68,
    91, 109, -42, -26, -110, 99, -106, -62, -95, -15, -48, 59, -101, 74, -21, 1,
    -82, 2, 114, 83, 27, -33, -84, 40, 79, 48, 101, -50, 87, 34, 103, -71,
    86, -103, -45, 87, 108, 92, -31, -78, 76, -58, 64, -7, 47, 30, -25, -56,
    -8, -33, -76, 50, 73, -105, -63, -99, 7, -54, 76, -75, -60, 100, -25, 109,
    -64, 97, -79, -90, -86, 116, 27, -52, -1, 12, -71, -85, 48, 96, -43, 127,
    -12, 96, 46, 71, 21, -41, 86, -52, -88, -69, 127, 5, 77, -73, -87, 14,
    -96, 20, 18, 28, 91, -105, 52, -34, -65, -50, -72, 70, 88, -86, -17, 7,
    80, 4, 94, 87, -66, 95, -8, 8, -16, -65, 85, -74, 83, -31, -37, 68,
    -95, -79, 91, 30, 124, 99, -77, 106, -29, 45, 14, 59, -7, 64, -60, 72,
    62, 56, -75, -38, 48, -82, -39, 33, 113, -74, -14, -67, 27, 96, -88, 70,
    77, 2, 53, 25, 23, 20, -34, -116, 70, -43, -97, -37, -124, 84, 45, -94,
    35, -54, 67, 46, 22, -16, -93, -9, 90, 43, -45, 91, -76, -34, -11, -65,
    73, -1, -87, 8, -24, 49, 41, -90, 56, -31, 60, -82, -47, 22, -18, 42,
    -55, 32, -7, -19, -120, -39, 63, 27, -85, -68, 12, -21, -127, -37, 53, 34,
    -44, 89, 82, 56, -76, -56, -78, 36, 13, 9, -76, -6, -75, -98, -59, 91,
    -106, 92, 56, 38, 72, 17, -33, -85, -74, -26, -69, -44, -40, -24, 32, -68,
    27, -85, 37, 16, 76, -53, 46, -42, -55, 10, -65, 12, -14, 1, 35, -33,
    14, -81, 59, -7, -55, -45, 33, -44, -71, -18, -75, 113, -71, 25, -47, -5,
    -17, -22, 56, 5, -64, 66, -68, 55, -58, -79, 91, 41, -18, -66, 74, -39,
    15, 10, 68, -33, 76, -70, -29, 83, -127, -29, 8, 64, -48, -66, 94, -91,
    107, 32, -74, 14, -17, -86, 87, -80, -6, -24, -13, -58, 78, -29, 95, -16,
    -3, -64, 78, -29, -91, 55, 5, -62, -50, -34, 55, 14, -81, -76, 89, 36,
    54, -89, 61, 92, -2, 69, -2, 16, 46, -38, -8, -25, 73, 10, -35, 53,
    -127, -29, -54, -28, 15, -81, -52, -14, -20, -42, -56, 62, 24, -54, 8, 45,
    -56, 34, -61, 21, -70, 24, -44, -35, 52, 18, -57, -53, 41, 2, -39, -17,
    52, 28, -8, 15, 62, 41, 34, 16, 10, 78, -31, 34, -77, 40, -48, 47,
    53, 37, 2, -59, -41, 12, -63, -44, 6, 70, -29, -52, -3, 14, 30, -59,
    86, 62, -16, -5, -49, 80, -15, -12, -75, 44, -46, -19, -68, 80, -65, -21,
    -33, 100, 34, 30, 54, 75, 21, 76, -64, 26, -6, 37, 8, -8, 56, 59,
    -17, 103, -40, -48, -79, -61, 61, -76, 26, 93, -57, 44, 63, -32, 99, -81,
    30, -59, 95, 19, 18, -86, 3, -68, -118, 59, -54, -4, 11, 111, -40, -68,
    99, -48, 80, 112, 27, -97, -16, -66, -56, -92, -5, -105, -23, -102, -100, -52,
    -127, -17, 52, -45, 113, 66, 50, 87, -69, 10, 61, -81, 104, -19, -31, -69,
    -68, 74, -87, 113, 66, 81, -43, -58, 85, -32, 5, 99, -31, -42, 46, 90,
    7, -13, 56, -79, 84, 63, 44, -46, 76, -14, -24, -10, -31, -91, -1, 2,
    12, -12, -46, -8, 12, 26, -88, 19, 84, -17, -73, 32, 54, 63, 15, -49,
    26, 19, -3, 82, -31, -17, 58, -25, 43, -79, 39, -70, -111, -88, 84, -17,
    12, 60, 28, 80, 7, -93, 55, -74, 38, 19, -127, -32, 12, -56, -36, 93,
    46, 68, -45, 11, -82, -17, 1, -54, 20, 24, -5, 8, -36, -122, 67, 122,
    38, -44, -46, -60, 71, 81, -26, 24, 26, 116, -64, -33, -109, -75, -8, -44,
    43, 75, -36, 79, 10, 58, -93, -9, -46, 83, 31, 39, 64, -62, -14, -51,
    56, -50, 12, 72, 12, -16, -7, 1, 14, 23, -32, 22, -127, 66, -17, -2,
    44, -36, -42, -94, -29, 53, 1, -13, 69, 36, 107, -14, -82, -13, 79, 8,
    -37, -19, 3, -45, -68, -19, -17, -29, -111, -22, -91, 79, -67, 63, 43, -75,
    -1, 64, -72, 36, -30, -18, 45, -102, 28, 71, -60, 12, -44, -38, 33, -34,
    -19, 9, 40, -52, 9, 9, -69, -30, 36, -61, 38, -50, -37, -42, 28, 22,
    -27, -5, 60, 54, 9, -54, -64, 8, 40, -22, -21, -17, 111, 24, 35, -28,
    117, -88, 72, 71, 34, 16, 44, 83, -35, 96, 7, 29, -79, 118, -51, 5,
    50, -96, 51, -54, 10, -55, 23, -73, 4, 18, -10, 67, -125, 21, 77, -46,
    -42, -88, -77, 49, -60, -58, -77, 78, -82, 43, -127, 58, -83, 81, 29, -54,
    -47, 28, 57, 28, -88, -22, 25, 40, -29, 19, 40, 21, -20, -106, -80, 6,
    -101, 51, 54, -92, 84, -4, 38, -33, 99, 64, -42, -59, -79, -47, -32, -29,
    32, 11, 86, 109, 16, -58, -15, 84, 112, -87, 80, -40, 23, -55, 65, 3,
    74, -76, 52, -34, 72, 24, -90, -51, 30, 33, 48, 75, -91, 64, -63, -40,
    23, 14, -112, -55, -90, -59, -8, -24, 71, 65, -49, -77, -82, -69, 127, 91,
    -113, -68, -34, -27, -46, -109, -3, -79, 29, -66, -39, 123, -123, 16, 93, -8,
    -69, 14, -88, 2, -65, 23, 58, -60, 110, -10, -10, -67, 36, -99, 47, 7,
    -89, 100, 35, -74, 15, -56, -84, -15, -20, -49, 78, 6, -74, 18, 57, 67,
    -32, -32, 37, 27, 44, -65, 6, 96, 40, 69, -59, 29, -8, 15, 20, 72,
    -56, 77, 33, 2, 87, 51, -63, -84, 24, 17, -18, 127, 29, -3, -71, 80,
    -90, 3, -95, 93, -59, -67, -71, -4, -48, -16, -53, 58, 46, 26, -53, 66,
    66, 17, 12, -4, 7, -97, 58, 125, 73, 67, 86, 55, -24, 61, 51, 79,
    -13, -45, 22, 27, -86, -93, -55, 10, 103, 80, -80, -13, -91, -7, -89, -17,
    -14, 96, -116, -60, 0, 99, -29, 116, 53, 13, 21, 43, -108, 41, 34, -8,
    -122, -6, -69, 24, 7, -18, 100, -29, 35, 86, 94, 43, 64, -6, 72, 118,
    -90, -98, 33, 15, -9, -86, -1, -18, 124, 66, 9, 65, -83, -10, 50, 92,
    -5, -90, -25, 48, 5, -77, 16, -92, 71, 93, 75, -94, -9, -9, 45, -44,
    -102, -58, 20, 43, -127, 44, 99, -92, -105, 12, -94, 33, -126, -8, 107, 62,
    19, 70, 80, -74, 68, 20, -71, 14, 50, -73, -83, 13, -5, 2, 83, 124,
    44, 29, 18, 78, -5, -59, -65, -109, -63, 88, -67, -33, -120, 39, -27, 112,
    63, -56, -24, 14, -22, -104, -18, -61, -50, 28, 50, -106, 71, 90, 59, -78,
    -95, 30, -28, -65, 9, -22, -6, 1, -3, -50, 9, -2, 127, -60, 1, 29,
    -49, 85, 0, 88, 26, -29, -3, -1, -48, -36, -107, -24, 79, -5, -80, 3,
    54, 11, 7, 20, 84, 37, 9, 31, 93, 83, 54, -79, 28, -57, -52, 85,
    33, -54, 68, -43, 15, 7, -65, 71, -26, -57, 29, -24, 32, 25, 5, 13,
    45, 5, -49, 55, -34, 32, 76, 17, -64, 59, -46, 56, 17, 94, -23, -24,
    13, 54, -53, -20, 23, 90, 42, 9, -51, 47, -3, 22, -86, -24, -4, 39,
    90, -27, 20, 63, -8, 21, -3, -4, -3, 43, -8, -2, -127, 58, -7, -17,
    43, -78, 4, -83, -28, 34, 6, 4, 47, 34, 110, 21, -68, 4, 70, -7,
    -43, -12, -8, -23, -73, -24, -13, -27, -93, -71, -60, 81, -29, 62, 45, -83,
    -35, 56, -67, 33, -19, -11, 59, -81, 19, 59, -31, 16, -33, -21, 7, -23,
    -29, -11, 46, -54, 35, -16, -78, -20, 57, -62, 40, -52, -16, -74, 19, 15,
    -21, -34, 52, 24, -11, -80, -41, -6, 43, -42, 3, -15, 79, 23, 9, -37,
    62, 61, -10, 115, 33, -53, -88, 55, -4, 16, -36, 33, -101, -52, 64, -57,
    97, -97, -27, -90, -6, -4, 44, -99, -74, 99, -36, 45, -120, 25, 30, -67,
    -10, -1, -8, 61, -78, 48, 81, -100, -127, 22, -54, 24, -109, 85, 20, -40,
    -30, 42, -51, -35, 9, -51, 71, -126, -51, -49, 43, -61, 63, -2, 83, -107,
    -99, -23, -37, -71, 94, 55, -42, 58, -38, -105, 51, 30, -35, -95, 35, 120,
    124, 73, -56, 73, 4, -117, -10, -117, 54, -93, -86, -11, 112, 48, -74, 35,
    -78, 31, 42, -6, -5, -22, 32, 20, 61, -10, 0, 24, 100, -10, 15, -2,
    2, 53, -5, 61, 52, -63, 20, -91, -52, -21, -125, -3, 24, 3, -48, 36,
    -19, -1, 29, 18, 8, -1, -13, -17, 92, 24, 71, -114, 20, -112, -26, 47,
    -10, -84, 41, -2, 29, -6, 15, 127, 13, -83, 37, 4, 38, -27, -38, 77,
    -6, 30, -20, 18, -31, -21, 105, 1, 3, 40, -28, 62, 21, -3, 12, 6,
    73, -60, -45, -6, -53, 14, 29, -30, 10, 20, -27, -28, -43, -45, -48, 10,
    108, 48, -27, 39, 11, 89, -3, 48, 9, 25, 67, -98, -62, -73, -96, 61,
    66, -74, -5, -54, -31, -4, 85, 124, 29, -22, 21, 54, -37, 88, -56, 62,
    15, 66, 31, -1, 102, 26, 24, -37, -108, -86, -54, 95, 76, 67, 97, -119,
    20, -15, -127, -103, 89, 99, 51, -76, -42, 82, 5, 5, -47, 81, -45, -100,
    -22, -36, 31, 54, 88, 5, -10, 72, 12, -96, 80, 66, 26, -16, 62, -1,
    90, -65, 40, 42, -94, -49, 82, 45, -37, 40, 85, 32, -39, -58, -55, 18,
    -8, 29, -112, 71, -3, 50, -103, -38, -58, 97, 85, -66, -87, -109, -42, -86,
    73, -94, 114, 45, -76, -25, 20, -119, -73, 52, -124, 127, -15, 17, -118, -52,
    -15, 25, -88, 36, 105, 86, -111, -72, 76, 125, 70, -70, 44, 124, -24, 34,
    -74, 58, 20, -106, 99, -84, 94, 16, -38, 19, 26, 66, 21, 60, 67, -120,
    28, 44, 97, -27, 6, 85, -93, -100, 4, -26, -85, 97, 67, -25, 61, 28,
    -9, 62, -55, -28, 105, -21, 89, 89, 101, -88, 28, 60, -71, 62, 26, 114,
    -112, 12, -94, 55, 95, -112, 86, 59, 4, 99, -23, -68, -101, 86, -117, -40,
    88, 63, 63, 33, 7, 83, -43, 68, -57, -17, -20, -67, -2, -52, -34, 97,
    91, -74, 116, 31, -16, 95, -60, 95, -17, 121, 62, 75, 7, 31, -79, -6,
    105, 127, 12, -98, 3, -56, 5, -107, -15, 10, 41, -45, -102, -41, 116, 54,
    79, -86, 6, -34, -9, 109, 118, 36, 79, -50, -10, -125, -71, -75, 95, 67,
    -83, 112, -91, 41, -108, 111, -74, -66, 77, -30, 37, 89, 117, 8, 7, -80,
    -36, -79, 53, 43, -56, 41, -22, 114, 125, 38, -94, 74, -27, -31, -49, -82,
    14, 10, -14, 11, -41, -16, 69, -97, -44, 116, 36, -17, -7, -15, 15, 34,
    -70, 1, -7, -64, -16, -89, -63, 11, 32, -11, -68, 75, -56, -23, 68, 27,
    -50, 75, -25, -8, 58, -19, 24, 67, 127, 49, 36, 2, -39, 66, 19, 114,
    -50, 82, 100, -14, 47, -99, 25, -20, 103, 40, 116, -54, -21, 3, -53, 1,
    -67, -110, 59, -11, 36, -28, 4, 21, -60, -13, -41, -52, 124, -47, -58, -20,
    -13, -54, -15, 48, 40, -102, -38, -15, -10, -43, -73, 43, 2, 47, 26, 29,
    3, 25, -99, -16, -49, 13, -26, -26, 115, -22, 39, -68, -49, -30, 94, -8,
    -3, 26, 8, 4, -27, -14, 3, 14, -31, 27, -86, 44, -127, 24, -3, 55,
    24, 82, -9, 63, -55, -32, -18, -55, 114, 59, -52, -19, -42, -54, 25, 62,
    -26, 49, -1, -17, -11, 31, -29, 1, -62, 88, -26, -33, -87, 16, -26, -29,
    -34, 45, 36, 66, 22, 13, -24, 38, -36, 22, -19, 20, 81, 30, 86, 11,
    -2, 80, -38, 26, 28, 70, -92, -100, -65, -27, 92, 92, -31, -73, -1, 36,
    15, -7, 81, -17, 38, 42, -33, 106, 23, 18, -6, 60, -10, 89, 43, -32,
    12, 55, -110, -14, 0, 2, -28, -28, 31, -4, -67, 49, 34, -1, 68, -65,
    88, 60, -61, -109, 19, 3, 2, 22, -91, 64, -22, -106, 13, 60, -57, 33,
    75, 55, -84, -90, 58, 75, -119, 99, -38, -69, -74, -46, 35, -44, 32, 85,
    66, 95, -20, -62, 98, 3, 32, 122, -127, -23, -19, 16, -13, -1, 102, 70,
    -80, 73, -25, 27, 6, -85, 49, -70, -88, 101, 43, -14, -98, 100, 42, -67,
    -75, -56, -68, -1, -24, -80, 50, 26, -64, 110, -38, 42, 91, 68, 72, 0,
    8, -83, -76, 82, -99, 44, -49, 69, 38, -24, -24, -41, 82, -47, 45, 39,
    -91, -95, -105, -29, 53, -20, -23, 54, 79, 91, 66, -90, -88, 20, -92, -75,
    85, 127, -6, -115, -69, 106, -36, -120, -53, -82, -30, -78, -55, 93, -57, -11,
    55, -90, -26, -9, 73, 9, -6, -19, 55, -46, -22, -50, 73, 99, -82, 2,
    -56, -49, -106, -52, -73, 45, -83, 65, 72, -36, 77, 90, -42, 26, 18, 105,
    -102, 108, -5, 105, -49, 79, -22, 72, 13, 63, -101, -109, 51, 35, 6, 45,
    90, -49, 58, 47, -14, -60, -108, 102, 31, 57, -76, -98, 51, 82, 40, 127,
    106, 58, 106, -38, 38, -86, -70, -22, 1, 99, 91, 17, 92, -66, 32, -28,
    -72, 60, 5, 39, -83, 103, 2, 94, -103, 115, -11, -33, -15, -46, -42, 6,
    -100, 91, 101, 70, -30, -25, -70, -42, 42, 66, -55, 10, -30, 8, -79, 116,
    -3, -106, 18, 74, 49, -70, -4, -50, -35, -51, -78, 80, -127, 15, -37, 47,
    20, -66, 41, -110, -33, -82, -14, 8, 115, -49, -33, 80, -40, -75, 99, 107,
    -35, -49, -28, -47, -15, -89, 80, -75, -11, 60, -80, -38, -95, -47, -25, -112,
    -54, -2, 53, 22, 5, -39, 45, 10, 65, 11, -21, 105, -79, 54, -31, 126,
    41, 22, 29, 42, -15, 7, 71, -27, -10, 68, 105, 68, -109, 8, 65, -39,
    59, -87, 73, 43, 14, -100, -58, -48, 79, -81, -6, 15, 65, -16, 39, -9,
    -47, -23, -27, -50, 1, -46, -46, -107, -98, 4, 60, -24, -75, -64, 30, 56,
    -80, 57, 75, 0, 11, 29, -84, -88, -16, -44, -9, 57, -21, 55, -33, 71,
    -55, 90, 103, -99, -112, 60, 66, -10, 17, 8, -24, 68, 9, -101, 15, -82,
    30, -75, -106, -106, -81, -87, 11, -72, 71, 127, 45, 6, 17, -94, -61, -3,
    -122, 114, 81, -33, 69, 111, -63, 45, -16, -9, -63, 25, -118, -76, 104, -56,
    23, -102, -19, 104, 41, -14, -32, 74, 124, -11, -78, -12, 89, 43, 96, 79,
    46, -101, 8, 17, -43, 30, 84, -77, -30, -57, 21, 61, 104, 20, 86, -92,
    13, -40, -48, 120, 64, -114, -100, -18, 73, 49, 43, 64, -56, 16, -42, -70,
    -8, 1, -89, 23, 41, 96, -10, 93, -46, -93, 113, -34, -20, -6, 116, -58,
    -38, -10, -94, 52, 84, 56, -26, -20, -111, -79, -49, 82, 102, -10, -45, 73,
    -40, -75, 65, -37, -91, -29, -76, -71, -48, 6, 30, -30, -127, -48, 81, -12,
    -79, -42, 104, 1, -29, 102, 22, 12, 96, 0, 1, 86, 44, -51, 58, -31,
    0, 14, 71, -46, -8, 36, 17, -17, -10, -31, 33, -49, 26, 18, 1, 60,
    30, 44, 20, 73, 57, -45, -14, 87, 10, -55, 29, -68, 29, 9, 10, -2,
    27, 5, -31, 29, 28, 24, 3, 11, 13, 17, 3, -20, 20, 2, -62, 17,
    25, -62, 11, 53, 20, -9, -35, 19, 0, -62, 23, -66, 25, -26, 30, -48,
    -29, -47, -30, 127, -17, -25, 40, -11, -30, -1, -64, 71, 40, 45, -12, -23,
    3, 20, -54, -9, 15, 18, -2, -35, -39, 24, 9, 25, -71, -34, -10, 2,
    11, -52, -84, 30, 16, 50, 83, -2, 45, 65, -61, 65, 69, -57, 67, -50,
    -63, 109, 56, -6, -71, 72, 37, -62, -37, 84, 39, -32, 5, -54, 44, 53,
    6, -24, -73, -48, 71, -80, 4, 78, 74, 66, -42, -18, -85, -84, 12, 47,
    85, -68, 37, -66, -65, -44, -78, 21, 12, 51, 72, 3, 51, 31, -76, -48,
    -65, -61, 25, 96, 85, -31, 32, 61, 24, -100, 8, 44, 33, 127, 96, -59,
    87, -91, -81, 45, 12, 104, 58, -31, 101, -84, 0, 29, 69, 72, 58, -50,
    97, 95, 28, 61, 15, 7, 45, -10, -42, 0, 6, -113, -83, 59, -49, 28,
    116, 101, 73, 70, 97, -91, 104, -63, -78, -78, 127, 38, 35, 65, -93, -112,
    50, -33, 43, -71, 121, -84, 49, 58, -42, 115, 55, -55, -51, 76, -56, 13,
    64, 28, -53, 106, 27, 17, -52, 60, -4, 49, 83, 47, -15, 56, 125, 1,
    -18, -104, -70, 96, -63, -42, 73, -61, -98, 18, 14, -79, 27, -68, 53, 40,
    43, 122, -48, -38, 44, 41, -53, -104, -48, 46, 39, -36, 61, -110, -16, 20,
    -65, 78, -29, 55, -6, -57, 118, -21, 8, 109, -104, 77, -61, -65, 64, -41,
    -50, -88, 56, 38, -7, 48, 8, -59, 50, 63, -12, -13, 94, -13, 127, 74,
    51, 38, 28, 41, -109, -66, -49, 6, -62, -52, -38, -63, 20, 117, -15, -80,
    -45, -40, -109, 97, 54, 76, -47, -65, 104, -41, -83, -60, 25, -19, -86, 97,
    -90, 8, 59, 48, 82, -30, 39, 13, 24, -37, 65, 9, 8, -48, 37, -84,
    75, 61, 78, -12, -110, -39, -57, -51, 83, -16, 107, -56, -30, -46, 25, 38,
    58, 100, 78, -104, -8, 108, 69, 33, -47, -94, 113, -53, 29, -24, -37, 55,
    95, 16, 50, 64, 18, 0, 23, 120, -37, 53, -6, 9, -65, 62, 88, 16,
    28, 17, -92, -71, 91, -67, -18, -60, -63, -27, -1, -75, -56, -81, -28, -19,
    95, -126, -70, 2, 116, 84, -35, -22, 11, -21, 35, -75, 9, 5, 87, -87,
    -32, 17, 45, 112, -29, 14, -8, 73, 40, -97, 23, 127, 57, -44, 52, -1,
    -29, 46, 48, 31, -63, 48, -67, -107, -66, 48, 72, 34, 24, -122, -55, -58,
    -121, -73, -88, -90, 27, -73, -34, -9, 32, -112, -85, -69, 110, -11, -94, -18,
    -11, -39, 96, 96, 23, -4, 49, 51, 11, 20, -83, 20, 56, 45, 18, 118,
    -38, 17, -91, 92, 10, -74, 74, 25, -39, 102, -83, -64, -25, 20, -127, 50,
    -107, -52, -44, -92, 50, 68, -35, -41, -3, -100, -117, -96, -56, 24, 78, 68,
    -28, 71, 84, -11, -67, -121, -8, -59, 15, -97, -11, 37, -37, 15, 92, 35,
    -88, -41, 34, 58, -80, -70, -60, 9, -6, 54, -37, -49, 53, -88, -2, -98,
    -81, 10, -47, 106, 100, -102, -57, 35, 5, -70, -81, -26, -6, 42, 53, 64,
    -58, 35, -63, -112, -59, 75, 18, -127, 27, 17, 72, -24, -87, -11, -46, -12,
    -54, 90, 16, -96, -80, -22, 57, 20, -114, -2, 62, -24, 22, 83, 101, 11,
    -108, -44, 56, -61, 64, 57, -57, 21, -68, -40, 37, 104, 30, 48, -16, 99,
    -73, 67, 35, -79, -57, 61, -43, 11, -2, 10, -9, -119, -8, -43, -15, 71,
    -54, -17, -62, -23, 59, -1, 51, 98, 45, 83, 21, 52, -41, 101, 41, 24,
    -127, 34, 44, -71, 96, 49, -38, -9, 34, -111, -105, 12, -19, 112, 73, -12,
    -91, 21, -1, -69, 75, 113, -46, 85, -71, -103, 69, 31, -20, -6, -121, 70,
    -25, -46, -74, 65, -105, 23, 106, -11, 33, 30, -46, -57, -59, -105, -22, 35,
    -59, 71, 8, 31, 109, 109, 83, -23, 36, -35, -6, 36, 43, -6, 7, -70,
    -50, -3, -16, -21, 29, 52, 3, 0, -19, 42, -77, -53, -1, 57, -1, 58,
    82, -105, -54, 58, 19, 21, -47, 73, -65, 52, -65, 0, 58, 92, -51, 63,
    -20, -42, -76, 49, 20, -50, 0, 8, 28, 29, -55, 53, -28, 8, 0, -48,
    -18, -83, -22, -76, -52, 68, 4, -96, -1, 40, -3, 57, -20, 2, -16, 2,
    -61, 4, 48, -19, -51, -45, 2, -2, -34, -28, 7, 9, -40, -3, 49, -11,
    -33, 62, -28, -59, -37, 2, 48, -17, 28, 59, -42, 56, -36, 13, -57, 68,
    14, 62, 47, -127, 2, 49, -45, 12, 30, 34, 45, -79, -71, -73, 18, 23,
    -4, -19, 53, 14, -28, -12, 22, 33, 37, 6, -11, -11, 77, 67, 13, 22,
    58, 95, -4, -75, 66, -127, 75, 90, -9, -92, 11, 70, 35, 57, 66, 106,
    39, -76, 19, -37, 50, -60, 119, 70, -110, -85, 0, -64, -13, -54, 77, 67,
    -13, -39, -84, -60, -62, 116, -12, -70, -26, 0, 7, 31, 71, -76, -60, -98,
    -63, -96, -19, -69, -54, 98, 126, 33, 77, 48, -2, 3, -4, -97, 102, -113,
    -27, -102, -74, 121, -2, 60, 29, 88, 8, 21, -99, 45, 16, -73, -85, -89,
    119, 58, 46, 97, 14, -73, 125, 7, -62, 68, -90, 21, 84, 39, -104, 107,
    18, -39, 72, 59, 51, 33, -49, -83, 63, 20, 62, 58, -96, 70, 67, -112,
    16, -92, 23, 49, 5, 43, -55, -15, 2, 93, 51, -33, -90, -5, 90, -29,
    20, -60, -67, -80, -95, -50, -38, 46, 64, 3, 46, -54, -56, -75, 124, -7,
    -31, -78, -2, -90, 54, -76, 32, 52, -77, 99, 79, 109, 84, -53, -43, 96,
    23, -54, 99, -53, -44, -4, 88, -35, 22, -4, -6, 35, -20, -98, -10, 73,
    -42, 75, -48, 30, 35, 14, 46, 16, -9, 65, -16, 68, 127, -63, 75, 11,
    -88, -83, -26, 105, 63, -45, -68, -77, -43, 15, -99, -75, -55, 36, 54, 29,
    92, 10, -46, 51, -76, 81, -44, -73, 1, -44, -22, -20, 14, -16, -79, -102,
    -85, -86, -96, 104, 44, 44, 78, 40, -52, -25, -41, 40, 22, -90, 35, -81,
    67, 20, -17, -67, 10, 32, 38, -77, -44, -51, -90, -23, -84, 109, -127, -19,
    10, -25, -20, 19, -42, -22, 83, -38, 5, 82, -15, -78, 41, -97, -121, -42,
    16, 85, -63, -52, 84, 72, 46, -74, 55, 6, -68, 83, -43, 39, -49, 93,
    18, -9, 75, 95, -4, 97, -24, -74, -55, -121, 104, 5, -91, -90, 55, 15,
    -68, -2, -23, 9, -14, -35, -63, -38, -18, 36, 42, 79, -34, -44, -65, -101,
    -63, -34, 107, -114, 87, 67, 45, 50, 87, 101, 41, -28, 47, -37, -77, 43,
    127, 62, -42, 0, 38, 51, -87, 33, 1, 80, 63, -89, -32, 79, -7, 23,
    94, -107, -7, -89, -18, 60, 0, 48, -78, 48, -78, 75, -15, 95, 20, 29,
    -82, 7, 60, -92, 86, 47, -49, -116, 65, -44, 43, 10, 79, -101, -30, 54,
    -66, -51, -45, 109, 58, -109, 13, 94, 35, 81, -43, 4, 109, 103, -29, 43,
    -26, 85, -58, -4, 26, -16, -21, 74, -41, 47, -11, -78, -90, 8, 62, -20,
    50, 20, 78, 84, 65, 52, -74, -82, 48, 112, 21, 32, -56, 35, -36, 20,
    83, -17, -95, -20, 16, -127, 69, -33, 12, 55, 18, 2, -120, 75, -42, -32,
    29, 69, 39, -81, -114, 83, 42, 60, 96, -44, 23, 86, -19, -20, -58, -5,
    -65, -28, -101, 66, -5, 74, 37, -77, -36, 116, -34, 85, -74, 102, 77, -56,
    21, 53, 35, 33, -38, -46, -86, 96, 14, 34, -76, -71, -17, 57, 83, -27,
    40, -21, -50, 91, 7, 90, -100, -19, -25, 97, 46, 34, 49, -79, -14, 51,
    -68, 29, 40, -95, -71, -82, -96, -38, 19, 36, 49, 21, -84, -86, 116, 16,
    74, -75, -69, -9, 74, -81, -44, -100, 46, 32, -54, 98, -83, -17, -59, 4,
    -3, 3, 110, -127, -56, -8, -46, 101, 63, 79, 100, -26, 45, -18, 78, 25,
    33, 41, -15, 100, 74, -34, -38, -74, 68, -81, -98, 78, 52, 102, -73, -69,
    -23, 79, -87, -90, -17, -52, 87, 80, -65, -75, -10, -63, -76, 77, -88, 59,
    -49, -69, -44, -71, -56, -25, -2, -72, 46, -116, 9, 81, -73, -10, -95, -80,
    49, 20, 27, 63, 3, -87, -113, 3, -49, 105, -27, 87, -24, -48, -127, 117,
    -91, 97, -17, -87, -38, 18, 75, -80, -67, 18, 57, -103, 43, -8, -55, 72,
    -68, -8, -15, -43, 2, -49, 91, -87, 50, -3, -9, -23, -20, -8, 101, -65,
    45, -71, -71, 89, 56, -78, -76, 74, -3, 100, -115, 40, -123, 36, -20, -8,
    -38, -5, -83, -29, 56, -98, 1, -4, 58, -23, 23, 29, -39, 32, -34, 9,
    -54, -15, -36, -59, -116, 0, 76, 5, -29, 20, 33, 64, 33, -49, -32, 97,
    -18, -26, -27, -57, -96, -84, 76, -4, 21, -84, 20, 36, -112, -15, 30, -58,
    6, 103, -91, -69, 41, -5, -31, 19, -53, 54, -84, 58, -57, -17, -58, 65,
    -60, 84, 50, -127, 48, 87, -76, 15, 19, 15, 80, -56, -71, 4, 58, 56,
    -80, -20, -13, -3, -26, -53, -42, -8, -45, 49, 39, -28, 116, 63, -38, 40,
    39, 85, 64, -85, -4, 33, -17, 24, -75, -92, 55, -57, 23, -23, -14, 4,
    -11, 103, 17, -1, 28, -9, 1, 37, -69, -71, 31, -36, -11, 18, 18, 41,
    69, 5, -66, -41, 77, 14, -62, -21, 56, 59, -31, 1, 35, -5, -92, 52,
    28, -7, 80, 21, 13, -52, -67, 52, -6, -69, 58, -94, 52, 18, 127, -78,
    0, -53, -77, 81, 61, 7, 35, -22, -64, -34, -34, 28, 90, 72, 27, -74,
    27, 24, -59, 25, 64, 33, -10, -12, -15, -48, -31, 28, -106, -87, 18, -54,
    -44, -85, -49, -15, -69, -60, 21, -67, -85, -93, 38, -3, -105, -89, 32, 123,
    42, 83, -19, 49, 96, -75, 36, -7, 33, -124, -35, -86, -43, 85, -48, 36,
    -4, 8, -52, -60, -75, 16, -104, -115, 96, 66, -35, -62, 81, 4, -101, 99,
    127, 3, 62, -76, 11, 89, -116, -110, 6, -2, 34, -62, 93, 37, -88, -107,
    81, -66, 15, 77, -9, -53, -40, -78, 36, -23, -95, -75, 83, 35, -83, -2,
    -29, 13, -8, 47, -110, 28, 32, -30, 89, 118, 16, 114, 30, -99, 76, -45,
    -78, -106, 7, 95, -43, 5, 26, 55, 84, 68, -37, 5, -97, -72, -36, 45,
    31, 6, 57, -2, 56, 70, -93, 79, 87, 4, 18, -76, -36, -69, -64, -15,
    -104, -11, 52, -64, -43, 9, -37, 15, -102, 16, 97, 8, 107, -90, -32, -41,
    87, -103, -28, -88, 25, -68, -84, -67, -52, 86, 4, -57, 113, 3, 16, -57,
    -49, -76, -88, -77, 44, -64, -89, 33, -17, -71, 101, -93, -127, 57, 41, -32,
    79, -79, -30, -13, -44, 48, -99, 91, 66, -61, -42, 10, 18, -86, 89, 64,
    110, 64, -100, -65, -59, 29, 68, 11, -111, -66, -49, -72, 58, -11, -87, -83,
    -106, -111, 62, -73, -116, 45, -1, -102, 24, 11, 5, 60, -48, -60, 71, 87,
    98, 61, 113, 36, -116, 31, -79, -93, 53, -78, -62, 122, 52, 40, -28, 26,
    -31, -13, 5, 77, -86, -27, 90, 5, 58, -34, 80, -74, -68, -63, -98, 86,
    87, 70, 66, 67, 106, 74, -85, 92, 88, 40, -5, 91, -9, -127, -57, -6,
    50, 21, 38, 83, 96, -69, -21, -16, -15, -99, -18, 87, -116, 45, 5, -24,
    -30, -48, -105, -57, 64, -31, -19, -24, -90, -7, -112, 65, -26, -9, 33, -61,
    -49, -73, -20, -58, -127, 82, 70, -90, -68, 67, -39, -39, -105, 4, 28, 90,
    -43, -47, 106, 53, -95, -113, 19, -48, -9, -14, -47, 81, -1, 24, -52, -29,
    15, 92, 9, -113, -82, 67, 113, 37, -30, -24, 29, -62, -29, 39, 19, 69,
    11, 86, -74, -106, -4, 80, -108, 58, -52, 3, 82, 57, -13, -45, 76, -22,
    49, 28, 22, 101, 37, 83, 97, 17, -39, -32, -21, -37, 40, 102, 69, 24,
    77, -50, 47, 117, 51, 28, 109, -84, 29, -45, -112, 62, -7, -27, -51, -38,
    -26, -127, 72, 36, 57, 114, 17, -90, -93, -39, -51, 54, 7, 62, -77, -126,
    19, 18, -55, -78, -6, -107, 85, 61, -93, -117, 101, 99, -124, 24, -81, -92,
    -77, 15, 107, 61, -122, 43, 124, 80, 107, -93, -63, 88, -95, -32, 112, 55,
    -5, 38, -54, -77, 38, -36, 117, 64, 71, 98, 7, -32, -90, -14, -104, 67,
    14, -42, -22, 81, -42, 43, 8, -36, -40, 61, -73, -109, 10, -113, -77, -22,
    16, -56, -34, 55, -49, 0, 37, -10, 0, -1, -64, 73, 30, -33, -35, 45,
    -69, 46, -21, -78, 58, 55, 45, -32, -75, 38, -124, 31, 89, 0, -94, 64,
    -100, -31, -61, 61, 85, -66, -38, 62, 34, 72, -60, 85, -38, -97, -32, 32,
    56, -14, -45, 24, -93, -68, 26, 127, -41, 52, -88, -24, 114, 26, -80, -32,
    22, 86, 87, 2, -84, 34, -55, -5, -93, 4, -9, 94, 11, -51, 35, 8,
    -33, -80, 0, -77, -59, -43, -67, -79, -28, 24, 81, -87, 84, 91, -99, 69,
    103, -68, 35, 28, 50, -33, -59, -2, -64, 31, -70, 88, -60, 52, -47, -16,
    23, -94, 59, 89, -84, 30, -109, -13, -54, -97, 79, 74, 14, 43, -52, 68,
    -72, -27, -40, -52, 92, 91, 53, -21, -55, -29, -45, 16, 57, 127, 61, -96,
    89, -100, 5, 7, -30, -44, -64, 31, -68, 20, 52, 61, -11, 101, -71, -78,
    -87, -21, -74, 70, -30, 20, 70, -101, 41, -99, 38, -39, -100, 16, 17, 31,
    44, -2, -42, 125, -11, 92, 79, -86, -37, -14, -85, 35, -53, -58, 91, 38,
